SVM-light Version V6.02
0 # kernel type
3 # kernel parameter -d 
1 # kernel parameter -g 
1 # kernel parameter -s 
1 # kernel parameter -r 
empty# kernel parameter -u 
144 # highest feature index 
6338 # number of training documents 
955 # number of support vectors plus 1 
1 # threshold b, each following line is a SV (starting with alpha*y)
0.27956141370555426250987807179627 1:0.26402399 2:0.092302203 3:0.0479329 4:0.141294 5:0.074821398 6:0.033106498 7:0.037688401 8:0.081784204 9:0.281405 10:0.281405 11:0.087558001 12:0.025782499 13:0.0117351 14:0.0102852 15:0.016678 16:0.0247407 17:0.157175 18:0.281405 19:0.246516 20:0.096442297 21:0.067806698 22:0.090841003 23:0.089639902 24:0.071973599 25:0.281405 26:0.281405 27:0.198838 28:0.281405 29:0.124645 30:0.070621401 31:0.043129399 32:0.0276128 33:0.091449797 34:0.216875 35:0.281405 36:0.281405 37:0.26350001 38:0.079287499 39:0.032365602 40:0.0213439 41:0.0402437 42:0.036185201 43:0.0291605 44:0.152312 45:0.26350001 46:0.218501 47:0.084093802 48:0.069098003 49:0.110132 50:0.12767 51:0.076206602 52:0.078504503 53:0.21531101 54:0.235015 55:0.26350001 56:0.098241903 57:0.086527698 58:0.057343502 59:0.0309058 60:0.124771 61:0.165444 62:0.244306 63:0.26350001 64:0.238778 65:0.089385703 66:0.126387 67:0.26350001 68:0.26350001 69:0.119517 70:0.21831 71:0.21303099 72:0.17920899 73:0.055493299 74:0.0207638 75:0.0158346 76:0.037854601 77:0.046077199 78:0.034409702 79:0.27125499 80:0.30831999 81:0.241145 82:0.14153001 83:0.039256301 84:0.031002499 85:0.0228124 86:0.0154148 87:0.0595631 88:0.30831999 89:0.30831999 90:0.288634 91:0.036404099 92:0.0018570001 93:5.2526899e-05 94:0.0034282201 95:0.00725475 96:0.0052506798 97:0.073093802 98:0.296812 99:0.30831999 100:0.066219501 101:0.0026642401 102:0.000666368 103:0.00053684902 104:0.0073308302 105:0.023730099 106:0.27623001 107:0.30831999 108:0.30831999 109:0.124864 110:0.043012898 111:0.0388515 112:0.0469127 113:0.0238385 114:0.083448201 115:0.26855001 116:0.26855001 117:0.208359 118:0.111479 119:0.063555099 120:0.065366201 121:0.26855001 122:0.26855001 123:0.078807801 124:0.197915 125:0.18327799 126:0.151355 127:0.103639 128:0.0256499 129:0.028287901 130:0.043099999 131:0.043193702 132:0.0517045 133:0.26855001 134:0.26855001 135:0.26855001 136:0.127084 137:0.072044201 138:0.064219497 139:0.26855001 140:0.26855001 141:0.110343 142:0.180382 143:0.184468 144:0.175285 #
0.27956141370555426250987807179627 1:0.148396 2:0.126903 3:0.13196 4:0.077197902 5:0.079048902 6:0.1079 7:0.149427 8:0.117773 9:0.243791 10:0.0940184 11:0.071074203 12:0.12647 13:0.21805701 14:0.108456 15:0.18272001 16:0.23992901 17:0.125195 18:0.19379 19:0.200789 20:0.147054 21:0.089445896 22:0.089038402 23:0.119422 24:0.16659801 25:0.192533 26:0.126011 27:0.222269 28:0.156609 29:0.099200703 30:0.186206 31:0.274551 32:0.23764101 33:0.274551 34:0.198467 35:0.15644801 36:0.16274001 37:0.044762202 38:0.0484806 39:0.164138 40:0.17644501 41:0.147129 42:0.217162 43:0.248119 44:0.092650801 45:0.04843 46:0.0452126 47:0.055070698 48:0.214321 49:0.21479499 50:0.278292 51:0.18972801 52:0.113829 53:0.043909598 54:0.028357901 55:0.053741299 56:0.086861603 57:0.21623901 58:0.278292 59:0.172921 60:0.278292 61:0.19770201 62:0.082011297 63:0.075995497 64:0.076584697 65:0.106557 66:0.16907001 67:0.213872 68:0.278292 69:0.278292 70:0.117392 71:0.0557772 72:0.101531 73:0.224397 74:0.12681 75:0.062617503 76:0.0277097 77:0.054090999 78:0.12509499 79:0.121865 80:0.16437501 81:0.21956401 82:0.285373 83:0.19170401 84:0.102348 85:0.099008597 86:0.098804399 87:0.1921 88:0.118049 89:0.14600401 90:0.173761 91:0.29581901 92:0.058623001 93:0.0134287 94:0.00237569 95:0.0121254 96:0.051462501 97:0.0834013 98:0.299321 99:0.299321 100:0.299321 101:0.267995 102:0.048671 103:0.0239037 104:0.0277119 105:0.040539101 106:0.063484997 107:0.16185901 108:0.299321 109:0.16115201 110:0.224832 111:0.15390199 112:0.112268 113:0.078584 114:0.165226 115:0.149428 116:0.085417397 117:0.106847 118:0.087870903 119:0.14394701 120:0.13441999 121:0.152053 122:0.114131 123:0.210338 124:0.183786 125:0.120784 126:0.128061 127:0.27433899 128:0.27433899 129:0.085576802 130:0.0391264 131:0.118554 132:0.20266899 133:0.151831 134:0.099408001 135:0.15443701 136:0.184118 137:0.129932 138:0.049756501 139:0.089673497 140:0.248816 141:0.27433899 142:0.27433899 143:0.21965601 144:0.158099 #
0.27956141370555426250987807179627 1:0.243441 2:0.31990799 3:0.199946 4:0.078443401 5:0.042089399 6:0.0244643 7:0.028299 8:0.068460703 9:0.125515 10:0.31536001 11:0.31990799 12:0.251811 13:0.096176602 14:0.0438626 15:0.0508269 16:0.040640801 17:0.0833354 18:0.205128 19:0.17084201 20:0.20211001 21:0.18757001 22:0.120781 23:0.096593603 24:0.0369315 25:0.064999796 26:0.077372402 27:0.16171201 28:0.194416 29:0.14195301 30:0.31990799 31:0.19563501 32:0.081876203 33:0.073208697 34:0.127965 35:0.088633299 36:0.18467 37:0.29412901 38:0.252206 39:0.15220501 40:0.095818102 41:0.150048 42:0.087412797 43:0.041187301 44:0.068444803 45:0.149131 46:0.069361702 47:0.066015601 48:0.097803898 49:0.21387 50:0.33799401 51:0.21856999 52:0.072238103 53:0.050539002 54:0.056022201 55:0.17772999 56:0.097645998 57:0.30096501 58:0.234237 59:0.091589198 60:0.078211002 61:0.078544699 62:0.077557802 63:0.12838501 64:0.064826801 65:0.048980799 66:0.148663 67:0.33277801 68:0.33799401 69:0.136343 70:0.058768101 71:0.073942602 72:0.083927497 73:0.14272299 74:0.120604 75:0.13942701 76:0.108911 77:0.157096 78:0.1006 79:0.108089 80:0.045611002 81:0.095345996 82:0.088570803 83:0.089777797 84:0.26669899 85:0.143144 86:0.109091 87:0.18814801 88:0.27055499 89:0.094006099 90:0.084644899 91:0.255795 92:0.18122099 93:0.041286401 94:0.029844301 95:0.072458297 96:0.0872299 97:0.113865 98:0.260299 99:0.26398501 100:0.078431502 101:0.048355401 102:0.0272757 103:0.0211256 104:0.078037597 105:0.233174 106:0.31738001 107:0.34338099 108:0.27523699 109:0.115574 110:0.12977099 111:0.22494 112:0.177085 113:0.0619886 114:0.126522 115:0.18524501 116:0.107812 117:0.088962898 118:0.071211897 119:0.11538 120:0.176667 121:0.26852199 122:0.337695 123:0.15747701 124:0.108482 125:0.068202302 126:0.0761218 127:0.061325599 128:0.114461 129:0.068567798 130:0.058598299 131:0.084682301 132:0.166058 133:0.272048 134:0.365491 135:0.196509 136:0.090116903 137:0.16591799 138:0.135764 139:0.16330899 140:0.244717 141:0.14978699 142:0.15255301 143:0.158354 144:0.101798 #
0.27956141370555426250987807179627 1:0.079902403 2:0.24306101 3:0.24306101 4:0.13373899 5:0.145862 6:0.085665703 7:0.15332299 8:0.110888 9:0.037211001 10:0.169882 11:0.24306101 12:0.19827899 13:0.116389 14:0.20667601 15:0.173048 16:0.118384 17:0.173969 18:0.153318 19:0.077822402 20:0.084627703 21:0.24306101 22:0.101597 23:0.200349 24:0.0941355 25:0.24306101 26:0.212523 27:0.0677322 28:0.24306101 29:0.119958 30:0.102293 31:0.074670397 32:0.23767801 33:0.124843 34:0.126011 35:0.176351 36:0.24306101 37:0.086406201 38:0.13623101 39:0.122068 40:0.0800929 41:0.196832 42:0.18976501 43:0.179132 44:0.25006899 45:0.185532 46:0.0195834 47:0.053356402 48:0.25006899 49:0.072883703 50:0.085127696 51:0.16281199 52:0.25006899 53:0.25006899 54:0.077150099 55:0.23831201 56:0.110713 57:0.158673 58:0.088407204 59:0.205585 60:0.15588599 61:0.16159201 62:0.140258 63:0.238713 64:0.056033 65:0.091830902 66:0.25006899 67:0.139826 68:0.169613 69:0.15064999 70:0.25006899 71:0.171958 72:0.043671802 73:0.041131899 74:0.10817 75:0.27519 76:0.074187599 77:0.16667201 78:0.14054 79:0.216085 80:0.134822 81:0.071351901 82:0.261911 83:0.075857401 84:0.14014 85:0.0782298 86:0.248298 87:0.0905362 88:0.065625101 89:0.085296601 90:0.25485599 91:0.0446142 92:0.037581399 93:0.147982 94:0.031122901 95:0.091440096 96:0.12881599 97:0.27519 98:0.27519 99:0.217841 100:0.163112 101:0.081715301 102:0.0547443 103:0.074944898 104:0.265623 105:0.121471 106:0.099168502 107:0.27519 108:0.27519 109:0.235065 110:0.0827903 111:0.089479104 112:0.0560362 113:0.20940199 114:0.116208 115:0.127754 116:0.102046 117:0.181164 118:0.059999701 119:0.084806196 120:0.28678799 121:0.161548 122:0.179021 123:0.082032204 124:0.28678799 125:0.25525701 126:0.0306738 127:0.175983 128:0.28678799 129:0.16473199 130:0.0680466 131:0.254471 132:0.118669 133:0.058329102 134:0.082967497 135:0.211312 136:0.067310698 137:0.28678799 138:0.28678799 139:0.142942 140:0.131064 141:0.035762299 142:0.088381901 143:0.072741799 144:0.030519299 #
0.27956141370555426250987807179627 1:0.116946 2:0.120062 3:0.156211 4:0.101593 5:0.35800001 6:0.111436 7:0.033052798 8:0.0083813202 9:0.101121 10:0.23934899 11:0.0818538 12:0.048529498 13:0.027091701 14:0.17283501 15:0.0290868 16:0.143196 17:0.087827899 18:0.23333 19:0.177503 20:0.13438401 21:0.133204 22:0.178633 23:0.36025399 24:0.13018601 25:0.105953 26:0.036260702 27:0.161889 28:0.30682501 29:0.089658998 30:0.063316599 31:0.053572301 32:0.223646 33:0.0469958 34:0.242449 35:0.097107701 36:0.29226801 37:0.182229 38:0.0234439 39:0.0461899 40:0 41:0.14436001 42:0.039510299 43:0.21819501 44:0.104481 45:0.188629 46:0.228589 47:0.056722902 48:0.112828 49:0.00626761 50:0.293796 51:0.035719998 52:0.106943 53:0.046687402 54:0.227374 55:0.204163 56:0.107761 57:0.067172602 58:0.059563398 59:0.32532701 60:0.0711843 61:0.26997301 62:0.095594898 63:0.165924 64:0.27444199 65:0.106211 66:0.11255 67:0.061822999 68:0.369692 69:0.066343099 70:0.15052401 71:0.074880399 72:0.257909 73:0.210426 74:0.086822301 75:0.100257 76:0.059518501 77:0.28858399 78:0.057069801 79:0.122914 80:0.071245 81:0.2244 82:0.335363 83:0.119366 84:0.0955033 85:0.050732899 86:0.170958 87:0.0130415 88:0.166903 89:0.090394601 90:0.309531 91:0.140663 92:0.047855798 93:0.084561303 94:0 95:0.373914 96:0.0535 97:0.13077 98:0.063244402 99:0.15679 100:0.233775 101:0.124908 102:0.19459701 103:0.064494997 104:0.28476799 105:0.0250533 106:0.104787 107:0.0584745 108:0.21605501 109:0.25729001 110:0.28172699 111:0.13416401 112:0.103744 113:0.15188999 114:0.0128629 115:0.099100202 116:0.040410101 117:0.13468599 118:0.247033 119:0.186592 120:0.099335097 121:0.0926321 122:0.152889 123:0.0111205 124:0.119938 125:0.12616301 126:0.20854101 127:0.208077 128:0.28054601 129:0.279439 130:0.117211 131:0.14094 132:0.023747001 133:0.087536603 134:0.031915799 135:0.116521 136:0.183488 137:0.28811699 138:0.30927801 139:0.172802 140:0.149615 141:0.0054800902 142:0.088511303 143:0.083134398 144:0.14283299 #
-0.27956141370555426250987807179627 1:0 2:0 3:0 4:0 5:0 6:0 7:0 8:0 9:0 10:0 11:0 12:0 13:0 14:0 15:0 16:0 17:0 18:0 19:0 20:0 21:0 22:0 23:0 24:0 25:0 26:0 27:0 28:0 29:0 30:0 31:0 32:0 33:0 34:0 35:0 36:0 37:0 38:0 39:0 40:0 41:0 42:0 43:0 44:0 45:0 46:0 47:0 48:0 49:0 50:0 51:0 52:0 53:0 54:0 55:0 56:0 57:0 58:0 59:0 60:0 61:0 62:0 63:0 64:0 65:0 66:0 67:0 68:0 69:0 70:0 71:0 72:0 73:0 74:0 75:0 76:0 77:0 78:0 79:0 80:0 81:0 82:0 83:0 84:0 85:0 86:0 87:0 88:0 89:0 90:0 91:0 92:0 93:0 94:0 95:0 96:0 97:0 98:0 99:0 100:0 101:0 102:0 103:0 104:0 105:0 106:0 107:0 108:0 109:0 110:0 111:0 112:0 113:0 114:0 115:0 116:0 117:0 118:0 119:0 120:0 121:0 122:0 123:0 124:0 125:0 126:0 127:0 128:0 129:0 130:0 131:0 132:0 133:0 134:0 135:0 136:0 137:0 138:0 139:0 140:0 141:0 142:0 143:0 144:0 #
0.27956141370555426250987807179627 1:0.030991901 2:0.0613074 3:0.167513 4:0.28306201 5:0.226189 6:0.034770101 7:0.0088674203 8:0.00465394 9:0.0109997 10:0.194213 11:0.236432 12:0.16760799 13:0.28306201 14:0.28306201 15:0.083729804 16:0.054608401 17:0.049671698 18:0.081723399 19:0.0127295 20:0.027079901 21:0.089589603 22:0.258843 23:0.28306201 24:0.247453 25:0.075433299 26:0.0054302998 27:0.0095642004 28:0.119969 29:0.212429 30:0.12794299 31:0.28306201 32:0.28306201 33:0.202849 34:0.110384 35:0.087210402 36:0.102046 37:0.182198 38:0.208358 39:0.13589901 40:0.25857201 41:0.25857201 42:0.209397 43:0.128736 44:0.079499997 45:0.082673602 46:0.08168 47:0.118264 48:0.070251003 49:0.133847 50:0.20960601 51:0.25857201 52:0.212161 53:0.073012501 54:0.071316198 55:0.107457 56:0.210013 57:0.148698 58:0.21386699 59:0.25857201 60:0.157749 61:0.128711 62:0.117135 63:0.101922 64:0.074137501 65:0.20590401 66:0.15517899 67:0.237728 68:0.198309 69:0.176681 70:0.137683 71:0.088069998 72:0.060393501 73:0.0140928 74:0.0165789 75:0.0276301 76:0.083190799 77:0.23457301 78:0.280027 79:0.239205 80:0.047371902 81:0.018290499 82:0.085935399 83:0.114484 84:0.124561 85:0.170618 86:0.280027 87:0.280027 88:0.18568601 89:0.105735 90:0.096906401 91:0.0574864 92:0.0152916 93:0.00867132 94:0.0247219 95:0.100968 96:0.280027 97:0.280027 98:0.229169 99:0.092963897 100:0.169008 101:0.124329 102:0.183668 103:0.131465 104:0.182137 105:0.27093199 106:0.189401 107:0.152191 108:0.160459 109:0.052067399 110:0.0797152 111:0.13204101 112:0.17476299 113:0.22653399 114:0.171068 115:0.115031 116:0.081090704 117:0.070981503 118:0.025834201 119:0.12188 120:0.194602 121:0.23527101 122:0.24880099 123:0.203215 124:0.0963789 125:0.073095299 126:0.037436701 127:0.073222302 128:0.135461 129:0.32269499 130:0.225229 131:0.141265 132:0.104859 133:0.064170703 134:0.0452592 135:0.042837098 136:0.019022601 137:0.16088 138:0.32269499 139:0.25522 140:0.32269499 141:0.28417701 142:0.075666897 143:0.047431901 144:0.020694001 #
-0.27956141370555426250987807179627 1:0.083779901 2:0.115993 3:0.154791 4:0.129078 5:0.29114199 6:0.049904399 7:0.113867 8:0.0917245 9:0.089937702 10:0.080049798 11:0.1353 12:0.180806 13:0.13961101 14:0.348506 15:0.096790999 16:0.14358699 17:0.059404202 18:0.074310698 19:0.116773 20:0.0963208 21:0.124868 22:0.116568 23:0.28952 24:0.075558797 25:0.19272301 26:0.196207 27:0.178709 28:0.19940899 29:0.17571101 30:0.15792701 31:0.18178999 32:0.35822499 33:0.062546097 34:0.184828 35:0.12665699 36:0.141661 37:0.0930655 38:0.126564 39:0.15810201 40:0.106511 41:0.27031401 42:0.110334 43:0.14795899 44:0.082262903 45:0.117366 46:0.104208 47:0.120077 48:0.163458 49:0.120269 50:0.30432701 51:0.114147 52:0.097011901 53:0.0776233 54:0.139475 55:0.19244701 56:0.201884 57:0.21179201 58:0.153685 59:0.27930501 60:0.052257199 61:0.130124 62:0.094168201 63:0.184898 64:0.162935 65:0.201004 66:0.22053 67:0.15992001 68:0.295706 69:0.076884203 70:0.18747 71:0.094358802 72:0.184752 73:0.123236 74:0.13268401 75:0.055774301 76:0.04211 77:0.0565098 78:0.031543002 79:0.150479 80:0.13388699 81:0.245147 82:0.258968 83:0.26115799 84:0.075479701 85:0.045347001 86:0.076790497 87:0.041743498 88:0.102584 89:0.094168 90:0.179317 91:0.202738 92:0.187353 93:0.0756891 94:0.055536602 95:0.074892499 96:0.055217899 97:0.18089999 98:0.20515899 99:0.33217701 100:0.292557 101:0.33217701 102:0.142407 103:0.050610501 104:0.105007 105:0.099524401 106:0.095275201 107:0.118275 108:0.33217701 109:0.23688 110:0.17038199 111:0.085135303 112:0.040132299 113:0.075438097 114:0.041708302 115:0.059021302 116:0.107758 117:0.24404 118:0.25810799 119:0.150552 120:0.069582999 121:0.037057701 122:0.077792801 123:0.016000399 124:0.080081098 125:0.130648 126:0.34249401 127:0.243119 128:0.183808 129:0.115763 130:0.047232799 131:0.15884399 132:0.089231998 133:0.0488456 134:0.111726 135:0.307603 136:0.34030399 137:0.14803401 138:0.082247399 139:0.056419399 140:0.106025 141:0.0142647 142:0.0492712 143:0.216031 144:0.34419501 #
0.27956141370555426250987807179627 1:0.282727 2:0.282727 3:0.282727 4:0.071106702 5:0.0162558 6:0.0064703398 7:0.0289727 8:0.052021101 9:0.166297 10:0.282727 11:0.282727 12:0.20468999 13:0.093910798 14:0.045048501 15:0.0138472 16:0.086008303 17:0.10948 18:0.218458 19:0.16103899 20:0.245938 21:0.213259 22:0.092241697 23:0.028009901 24:0.060519401 25:0.110969 26:0.089088999 27:0.104496 28:0.282727 29:0.244506 30:0.12771501 31:0.14957701 32:0.100481 33:0.0458779 34:0.143736 35:0.15115 36:0.17538799 37:0.268262 38:0.26174101 39:0.20880499 40:0.062362898 41:0.037453 42:0.0209252 43:0.0679451 44:0.096909702 45:0.26495099 46:0.210527 47:0.107583 48:0.151788 49:0.203059 50:0.240694 51:0.059397399 52:0.102763 53:0.14904 54:0.268262 55:0.208746 56:0.15676799 57:0.135317 58:0.208313 59:0.154202 60:0.066403903 61:0.1417 62:0.128482 63:0.093678802 64:0.071921401 65:0.052313 66:0.145629 67:0.23855799 68:0.268262 69:0.169718 70:0.137468 71:0.14820801 72:0.076662198 73:0.182099 74:0.135969 75:0.090238899 76:0.080198802 77:0.076713003 78:0.12063 79:0.28287101 80:0.10588 81:0.0848509 82:0.33490601 83:0.222435 84:0.130284 85:0.16208699 86:0.154962 87:0.077812403 88:0.15705501 89:0.114538 90:0.14206199 91:0.089070603 92:0.0428898 93:0.0271957 94:0.0474029 95:0.129483 96:0.165334 97:0.33490601 98:0.13928799 99:0.0312213 100:0.186428 101:0.100636 102:0.072377697 103:0.071119301 104:0.235935 105:0.243873 106:0.33490601 107:0.199772 108:0.082818903 109:0.197863 110:0.108649 111:0.096456498 112:0.181353 113:0.19194999 114:0.087490901 115:0.182422 116:0.144881 117:0.119884 118:0.133581 119:0.056161199 120:0.094646297 121:0.26627401 122:0.302448 123:0.21322399 124:0.139493 125:0.106882 126:0.106059 127:0.14742801 128:0.072947703 129:0.036997002 130:0.040866502 131:0.156013 132:0.187142 133:0.302448 134:0.197541 135:0.104402 136:0.162911 137:0.077098601 138:0.0394894 139:0.23126499 140:0.302448 141:0.214637 142:0.197254 143:0.079549 144:0.097980402 #
-0.27956141370555426250987807179627 1:0.116654 2:0.182487 3:0.31725001 4:0.0244954 5:0.0106537 6:0.0183306 7:0.0477814 8:0.0575727 9:0.114195 10:0.23671301 11:0.31725001 12:0.21624801 13:0.034494098 14:0.0213126 15:0.059877701 16:0.18147001 17:0.160181 18:0.28558201 19:0.201294 20:0.31725001 21:0.31725001 22:0.026803801 23:0.00154833 24:0.0100389 25:0.016990701 26:0.0098538399 27:0.046706799 28:0.129701 29:0.31725001 30:0.31725001 31:0.0272102 32:0.0050070998 33:0.0115909 34:0.049023598 35:0.046914902 36:0.109279 37:0.29899499 38:0.29899499 39:0.219193 40:0.14296 41:0.051056702 42:0.057113901 43:0.184654 44:0.19775601 45:0.29899499 46:0.29899499 47:0.105698 48:0.104502 49:0.104988 50:0.033957601 51:0.0096365502 52:0.059337199 53:0.0840398 54:0.29899499 55:0.122622 56:0.29899499 57:0.29899499 58:0.111852 59:0.0240715 60:0.023666101 61:0.052478202 62:0.054880001 63:0.139625 64:0.13966 65:0.202879 66:0.211059 67:0.099983297 68:0.0308844 69:0.0136662 70:0.022834299 71:0.023259399 72:0.085832097 73:0.305738 74:0.305738 75:0.14236701 76:0.0127815 77:0.0033400799 78:0.00639319 79:0.0124248 80:0.0099824201 81:0.244241 82:0.25948399 83:0.305738 84:0.22274999 85:0.00305319 86:0.0046855202 87:0.00228106 88:0.0046524801 89:0.0112621 90:0.305738 91:0.305738 92:0.092656001 93:0.0246535 94:0.00681843 95:0.037894901 96:0.043227799 97:0.039760299 98:0.085380301 99:0.305738 100:0.305738 101:0.12444 102:0.068664499 103:0.0061873202 104:0.041288499 105:0.031514 106:0.032979298 107:0.078572199 108:0.305738 109:0.22462501 110:0.25800699 111:0.19302399 112:0.0160389 113:0.0107414 114:0.0062244302 115:0.0103543 116:0.022869499 117:0.30733699 118:0.152751 119:0.110166 120:0.18898199 121:0.076909997 122:0.021064499 123:0.0140378 124:0.0222902 125:0.0317646 126:0.17923699 127:0.30733699 128:0.19494 129:0.24623901 130:0.076149002 131:0.034272201 132:0.017095501 133:0.032440301 134:0.090617299 135:0.30733699 136:0.29118001 137:0.15626401 138:0.30733699 139:0.141158 140:0.047672 141:0.030989399 142:0.050906099 143:0.088518798 144:0.30733699 #
-0.27956141370555426250987807179627 1:0.21246099 2:0.462565 3:0.462565 4:0.078138404 5:0.057691399 6:0.000309519 7:0.0037659099 8:0.0101087 9:0.078274101 10:0.190938 11:0.32273901 12:0.33407199 13:0.047649 14:0.054537401 15:0.0050670402 16:0.031934299 17:0.045675501 18:0.15487701 19:0.169155 20:0.32332501 21:0.115042 22:0.019846 23:0.042953599 24:0.0204137 25:0.019470099 26:0.0288352 27:0.144658 28:0.12821101 29:0.090772301 30:0.070847303 31:0.0265835 32:0.0345276 33:0.018571099 34:0.0211147 35:0.0502179 36:0.126323 37:0.400291 38:0.19576 39:0.103238 40:0.032062501 41:0.057617702 42:0.00667575 43:0.057671499 44:0.097843803 45:0.400291 46:0.400291 47:0.178663 48:0.0914969 49:0.062748 50:0.036370698 51:0.0018533299 52:0.019168399 53:0.0685523 54:0.400291 55:0.199459 56:0.130715 57:0.127856 58:0.061092999 59:0.036041599 60:0.018435 61:0.058422498 62:0.088242002 63:0.18001799 64:0.171986 65:0.15297399 66:0.17092299 67:0.070126601 68:0.052702598 69:0.0133245 70:0.034850702 71:0.059512701 72:0.145448 73:0.21265 74:0.057737 75:0.0427102 76:0.030271599 77:0.052071299 78:0.036647499 79:0.0406004 80:0.0458715 81:0.232256 82:0.180889 83:0.057041101 84:0.041487601 85:0.023439899 86:0.043937601 87:0.039744899 88:0.0247136 89:0.061125699 90:0.24827801 91:0.43300101 92:0.059389599 93:0.0387371 94:0.030731799 95:0.025973801 96:0.0225685 97:0.033396602 98:0.076583996 99:0.43300101 100:0.43300101 101:0.054750402 102:0.0297355 103:0.00825956 104:0.0134039 105:0.0185278 106:0.034155902 107:0.071760103 108:0.43300101 109:0.16813301 110:0.050624501 111:0.053691901 112:0.039172702 113:0.0245142 114:0.0266784 115:0.045543499 116:0.096335202 117:0.21630301 118:0.145371 119:0.0560879 120:0.065050997 121:0.0602054 122:0.039548401 123:0.0100857 124:0.030701799 125:0.1016 126:0.22101399 127:0.43527099 128:0.073346898 129:0.040667102 130:0.0121852 131:0.0173098 132:0.0178675 133:0.0518783 134:0.11777 135:0.43527099 136:0.404553 137:0.117442 138:0.034504101 139:0.0299519 140:0.024748599 141:0.0074592102 142:0.049913201 143:0.177734 144:0.43527099 #
-0.27956141370555426250987807179627 1:0.29617801 2:0.11119 3:0.0271385 4:0.0399516 5:0.082277097 6:0.102131 7:0.185334 8:0.21833999 9:0.30171201 10:0.30171201 11:0.139865 12:0.039660599 13:0.058799401 14:0.077412702 15:0.060266599 16:0.121902 17:0.30171201 18:0.30171201 19:0.150573 20:0.040421899 21:0.0101517 22:0.033880901 23:0.031858198 24:0.045723099 25:0.216903 26:0.23672201 27:0.22274899 28:0.252249 29:0.092235401 30:0.0185793 31:0.048965801 32:0.037625 33:0.021655301 34:0.074875899 35:0.16548 36:0.30171201 37:0.31130201 38:0.104485 39:0.097904302 40:0.068364099 41:0.050997801 42:0.0187479 43:0.073755503 44:0.25611699 45:0.31130201 46:0.27563101 47:0.171527 48:0.22511201 49:0.146791 50:0.063672997 51:0.0092660896 52:0.060813401 53:0.085510299 54:0.31130201 55:0.29804099 56:0.079118602 57:0.0245266 58:0.0208207 59:0.0136032 60:0.0086360099 61:0.035082001 62:0.100328 63:0.31130201 64:0.31130201 65:0.061976898 66:0.045812901 67:0.0339894 68:0.0105798 69:0.0070118899 70:0.0209939 71:0.090154 72:0.31130201 73:0.0247277 74:0.00201621 75:0.00114497 76:0.0076478701 77:0.00557213 78:0.049581598 79:0.39542201 80:0.35137299 81:0.068439104 82:0.052073501 83:0.0246918 84:0.0122555 85:0.023621701 86:0.0114957 87:0.018474501 88:0.138469 89:0.159916 90:0.0912221 91:0.0201093 92:0.00079144002 93:0.00221614 94:0.00177667 95:0.0440479 96:0.104102 97:0.39542201 98:0.39542201 99:0.076067999 100:0.016405201 101:0.050948702 102:0.0737321 103:0.035439 104:0.056941699 105:0.084882103 106:0.39542201 107:0.37466601 108:0.048764601 109:0.25720999 110:0.100567 111:0.048089702 112:0.067228101 113:0.037751101 114:0.0144692 115:0.066711403 116:0.121107 117:0.31199899 118:0.34598801 119:0.0588804 120:0.025120899 121:0.037730802 122:0.0249786 123:0.0180932 124:0.017983099 125:0.094426297 126:0.34598801 127:0.141587 128:0.231057 129:0.27923101 130:0.12828501 131:0.076364703 132:0.031391799 133:0.17652 134:0.18715601 135:0.139843 136:0.34598801 137:0.117867 138:0.0961987 139:0.062038399 140:0.054639399 141:0.024733 142:0.0306897 143:0.0940613 144:0.34598801 #
0.27956141370555426250987807179627 1:0.092255399 2:0.188425 3:0.161089 4:0.186269 5:0.16304301 6:0.10699 7:0.103556 8:0.099259101 9:0.104918 10:0.100309 11:0.191984 12:0.1274 13:0.12501401 14:0.20716099 15:0.12257 16:0.185058 17:0.154515 18:0.113378 19:0.063514002 20:0.092658103 21:0.13653301 22:0.25408599 23:0.230134 24:0.207772 25:0.108433 26:0.101962 27:0.070399798 28:0.13231499 29:0.238566 30:0.249134 31:0.22665399 32:0.25408599 33:0.19099399 34:0.221425 35:0.21662299 36:0.107596 37:0.073696397 38:0.174135 39:0.179065 40:0.119539 41:0.142148 42:0.075193502 43:0.115328 44:0.099915199 45:0.078505598 46:0.135453 47:0.16156299 48:0.169493 49:0.21673299 50:0.249595 51:0.171491 52:0.141415 53:0.089345999 54:0.13753401 55:0.075003602 56:0.224648 57:0.22998799 58:0.19366799 59:0.28541899 60:0.14962099 61:0.14892501 62:0.120289 63:0.056007899 64:0.103581 65:0.128851 66:0.140241 67:0.29739401 68:0.29739401 69:0.26511401 70:0.095054902 71:0.059960801 72:0.062670201 73:0.084307402 74:0.144841 75:0.13884901 76:0.18660501 77:0.187088 78:0.20935801 79:0.088057898 80:0.118344 81:0.039143499 82:0.17297401 83:0.237936 84:0.224428 85:0.17329299 86:0.178611 87:0.22622199 88:0.191605 89:0.16776501 90:0.0650189 91:0.200995 92:0.183759 93:0.108678 94:0.119256 95:0.093503803 96:0.184177 97:0.18333399 98:0.220456 99:0.088099599 100:0.266013 101:0.266013 102:0.097363897 103:0.088605799 104:0.086437799 105:0.159087 106:0.183209 107:0.137683 108:0.130147 109:0.11478 110:0.105095 111:0.121767 112:0.14445101 113:0.236745 114:0.22385199 115:0.25565499 116:0.16613699 117:0.090139002 118:0.0952437 119:0.052088801 120:0.13426401 121:0.28670299 122:0.28670299 123:0.205147 124:0.164381 125:0.10685 126:0.087545499 127:0.247015 128:0.15810999 129:0.12654699 130:0.119439 131:0.097338803 132:0.13081799 133:0.16897801 134:0.075556599 135:0.157325 136:0.16817901 137:0.14092501 138:0.192349 139:0.202676 140:0.195173 141:0.146834 142:0.14745601 143:0.118971 144:0.15464801 #
0.27956141370555426250987807179627 1:0.0280961 2:0.022195 3:0.034315199 4:0.064982302 5:0.091453098 6:0.111117 7:0.24781799 8:0.294283 9:0.108047 10:0.0030448299 11:0.0049538398 12:0.022334499 13:0.102833 14:0.31462201 15:0.290997 16:0.31863901 17:0.247583 18:0.0077562202 19:0.020309599 20:0.010882 21:0.029625701 22:0.059159901 23:0.17118201 24:0.20362701 25:0.17147601 26:0.124217 27:0.069139801 28:0.00013807901 29:0.00076959998 30:0.0405064 31:0.113106 32:0.31863901 33:0.31863901 34:0.31863901 35:0.087991402 36:0.0034638499 37:0 38:0.000194828 39:0.0055871299 40:0.0442142 41:0.35262099 42:0.35262099 43:0.176346 44:0.078286603 45:0 46:0.00842275 47:0.0029224099 48:0.0212311 49:0.041230399 50:0.32748201 51:0.29198501 52:0.039246298 53:0.0170459 54:0.0099783 55:0 56:1.29885e-05 57:0.0114785 58:0.064369 59:0.35262099 60:0.35262099 61:0.111202 62:0.020305101 63:0 64:0.0024916299 65:0.00136114 66:0.00728815 67:0.051466599 68:0.35262099 69:0.34421 70:0.024800099 71:0.0055227499 72:0.0027334299 73:0.0275506 74:0.033318799 75:0.157831 76:0.142031 77:0.13609999 78:0.076501898 79:0.048016701 80:0.010522 81:0.0246964 82:0.00077905197 83:0.00755218 84:0.197731 85:0.34248 86:0.34248 87:0.325766 88:0.13149001 89:4.2083098e-05 90:0.00026942001 91:0.085602 92:0.19267599 93:0.34248 94:0.215074 95:0.037506402 96:0.00057023199 97:0.00174081 98:0.0070613902 99:0.0265767 100:0.0075113098 101:0.047829099 102:0.34248 103:0.34248 104:0.27834001 105:0.021774599 106:0.0049924399 107:0 108:0.000167498 109:0 110:0 111:0.039731499 112:0.29147601 113:0.36089501 114:0.31728601 115:0.0389903 116:0 117:0 118:0.00137437 119:0.0032307501 120:0.0138162 121:0.158526 122:0.36089501 123:0.174273 124:0.0019058899 125:0 126:0.00137437 127:0 128:7.1709503e-05 129:0.086761802 130:0.36089501 131:0.36089501 132:0.070525602 133:0.00178147 134:0 135:0 136:0.00094559003 137:0.0016079301 138:0.0068339002 139:0.23617999 140:0.36089501 141:0.17965899 142:0.0108286 143:0 144:0.00094559003 #
0.27956141370555426250987807179627 1:0.0312202 2:0.128975 3:0.249567 4:0.20336901 5:0.29998401 6:0.034562599 7:0.025501201 8:0.01585 9:0.0203501 10:0.031033199 11:0.037345901 12:0.035540499 13:0.37197301 14:0.38624299 15:0.056708701 16:0.022804599 17:0.034922 18:0.034928501 19:0.019407401 20:0.0108201 21:0.031844299 22:0.18148901 23:0.38624299 24:0.0301187 25:0.015786801 26:0.0112506 27:0.021754701 28:0.0048289201 29:0.00151824 30:0.0040251398 31:0.38624299 32:0.38624299 33:0.032865699 34:0.0102136 35:0.00409642 36:0.0070493398 37:0.0156117 38:0.016461501 39:0.0197726 40:0.29563901 41:0.36692199 42:0.086273499 43:0.053191599 44:0.053490601 45:0.058749001 46:0.0065159402 47:0.0110486 48:0.031470701 49:0.089551203 50:0.36692199 51:0.218604 52:0.309618 53:0.036409501 54:0.038336199 55:0.00266776 56:0.00144809 57:0.0053082998 58:0.36692199 59:0.36692199 60:0.0311174 61:0.0075546801 62:0.0026485 63:0.00299875 64:0.0147718 65:0.0025597999 66:0.0083964998 67:0.112698 68:0.36692199 69:0.20996401 70:0.065101802 71:0.00472609 72:0.0154788 73:0.019667899 74:0.0059082098 75:0.0067666899 76:0.140607 77:0.39599699 78:0.030888701 79:0.0114593 80:0.0088280896 81:0.0191448 82:0.0047372198 83:0.0012745199 84:0.0036806101 85:0.37161899 86:0.39599699 87:0.021770701 88:0.00285076 89:0.00207181 90:0.0040001101 91:0.0170523 92:0.0057636001 93:0.0061488398 94:0.153074 95:0.39599699 96:0.104882 97:0.12307 98:0.0147495 99:0.0161945 100:0.0021979201 101:0.00088480901 102:0.00247199 103:0.39599699 104:0.39599699 105:0.032345802 106:0.0078159301 107:0.00487056 108:0.0023522801 109:0.0042394302 110:0.0020634199 111:0.0053973198 112:0.40172401 113:0.40172401 114:0.0169382 115:0.0039299498 116:0.0020216899 117:0.0044065798 118:0.032841299 119:0.0045228498 120:0.0141055 121:0.114259 122:0.35457101 123:0.089095697 124:0.0085402802 125:0.0022907001 126:0.0312005 127:0.00378885 128:0.00530014 129:0.0067171399 130:0.40172401 131:0.40172401 132:0.0277056 133:0.0061911298 134:0.0027631901 135:0.00344747 136:0.0400167 137:0.0120114 138:0.10211 139:0.27217701 140:0.33358899 141:0.036405802 142:0.0071144798 143:0.00091526803 144:0.0345672 #
0.27956141370555426250987807179627 1:0.062642001 2:0.043387 3:0.082157902 4:0.103631 5:0.069391198 6:0.0025750699 7:0.0456191 8:0.34006 9:0.12611 10:0.041261502 11:0.0567476 12:0.074578203 13:0.34006 14:0.34006 15:0.16539 16:0.051936101 17:0.25378501 18:0.103367 19:0.099681102 20:0.045492701 21:0.032793999 22:0.147412 23:0.184441 24:0.019932801 25:0.045418698 26:0.15038601 27:0.0839976 28:0.147853 29:0.058952499 30:0.070838101 31:0.34006 32:0.34006 33:0.24539401 34:0.091238201 35:0.17827401 36:0.158205 37:0.0059390701 38:0.0098153297 39:0.0181405 40:0.33319601 41:0.39478701 42:0.135959 43:0.0039709499 44:0.0110268 45:0.0095014498 46:0.0038707 47:0.00134815 48:0.00038336401 49:0.12399 50:0.39478701 51:0.20066001 52:0.0148784 53:0 54:0.0066237398 55:0.0206789 56:0.0081314296 57:0.0200425 58:0.26110399 59:0.39478701 60:0.216364 61:0.021632399 62:0.0149657 63:0.024418 64:0.0061104698 65:0.0038989901 66:0.00721225 67:0.125284 68:0.39478701 69:0.23063999 70:0.0159877 71:0 72:0.0095942402 73:0.25151399 74:0.145842 75:0.026880801 76:0.0501949 77:0.12186 78:0.040379699 79:0.023053 80:0.0360437 81:0.077092201 82:0.273359 83:0.0998668 84:0.016773401 85:0.17623299 86:0.33707401 87:0.33707401 88:0.108147 89:0.062446799 90:0.108848 91:0.303058 92:0.18378 93:0.035576299 94:0.0085511096 95:0.069818802 96:0.040998001 97:0.023432599 98:0.043838199 99:0.184725 100:0.196064 101:0.10669 102:0.0107753 103:0.22995 104:0.33707401 105:0.33707401 106:0.0859989 107:0.0415194 108:0.067854702 109:0.0279052 110:0.0069077299 111:0.0040488699 112:0.126289 113:0.39309299 114:0.30429101 115:0.0401485 116:0.0116438 117:0.0209052 118:0.0061344602 119:0.00184484 120:0.0137109 121:0.102115 122:0.39309299 123:0.224123 124:0.0072691701 125:0 126:0.0064150998 127:0.0138104 128:0.0051611299 129:0.0011480401 130:0.181474 131:0.39309299 132:0.319947 133:0.028865499 134:0.0067774002 135:0.0076822801 136:0.00583822 137:0.00034311099 138:0.016669 139:0.145629 140:0.39309299 141:0.21714 142:0.0168398 143:0.00054583099 144:0.0048633399 #
-0.27956141370555426250987807179627 1:0.27642 2:0.27642 3:0.23408601 4:0.095391601 5:0.27642 6:0.107866 7:0.072509602 8:0.115867 9:0.138228 10:0.23269799 11:0.217071 12:0.27642 13:0.164267 14:0.27642 15:0.122975 16:0.0387499 17:0.0553631 18:0.0730673 19:0.215482 20:0.27642 21:0.110671 22:0.106053 23:0.071264498 24:0.038032498 25:0.050867502 26:0.100118 27:0.0981161 28:0.139935 29:0.19376799 30:0.20976 31:0.131033 32:0.106681 33:0.122377 34:0.10276 35:0.080560997 36:0.108592 37:0.137154 38:0.17665 39:0.27128199 40:0.204798 41:0.177819 42:0.107859 43:0.056687001 44:0.044182699 45:0.0650746 46:0.213406 47:0.248202 48:0.27128199 49:0.152632 50:0.182464 51:0.089370497 52:0.0845282 53:0.0794627 54:0.111343 55:0.111908 56:0.208831 57:0.27128199 58:0.22174101 59:0.13851 60:0.13045999 61:0.081561603 62:0.0425613 63:0.098440699 64:0.142693 65:0.27128199 66:0.27128199 67:0.20757499 68:0.179968 69:0.079639703 70:0.083022498 71:0.042524401 72:0.12877899 73:0.070820399 74:0.163269 75:0.079581402 76:0.143498 77:0.13867 78:0.047458 79:0.0871576 80:0.16909701 81:0.135842 82:0.102449 83:0.19089 84:0.22102199 85:0.162765 86:0.102965 87:0.101478 88:0.079390399 89:0.074453898 90:0.130137 91:0.104368 92:0.15246899 93:0.14594799 94:0.172328 95:0.14541601 96:0.235282 97:0.27302 98:0.27302 99:0.236276 100:0.17366301 101:0.220873 102:0.258524 103:0.27302 104:0.124624 105:0.076831304 106:0.12971801 107:0.174906 108:0.18674 109:0.18028399 110:0.27021301 111:0.26850399 112:0.20163 113:0.101963 114:0.105762 115:0.046973899 116:0.033069201 117:0.114223 118:0.17896 119:0.270973 120:0.22668099 121:0.185895 122:0.14297301 123:0.096842602 124:0.102466 125:0.032912798 126:0.112131 127:0.24566001 128:0.270973 129:0.270973 130:0.206267 131:0.069970198 132:0.031114699 133:0.0567744 134:0.100193 135:0.120743 136:0.199641 137:0.270973 138:0.189046 139:0.142534 140:0.153228 141:0.071389802 142:0.0731958 143:0.041047499 144:0.085553601 #
-0.27956141370555426250987807179627 1:0.113448 2:0.079749003 3:0.0707701 4:0.081906401 5:0.081693202 6:0.069238603 7:0.144559 8:0.25520399 9:0.239813 10:0.19301499 11:0.217654 12:0.166981 13:0.079961099 14:0.090354197 15:0.151513 16:0.18448 17:0.25520399 18:0.22553299 19:0.100958 20:0.0467568 21:0.070616901 22:0.0545858 23:0.0435693 24:0.103809 25:0.25520399 26:0.248946 27:0.25474399 28:0.0978484 29:0.085448898 30:0.128664 31:0.071819499 32:0.102188 33:0.25520399 34:0.25520399 35:0.25520399 36:0.20496701 37:0.17185099 38:0.24994799 39:0.21549 40:0.107617 41:0.113863 42:0.122577 43:0.145465 44:0.122481 45:0.117558 46:0.20033 47:0.24994799 48:0.24994799 49:0.156139 50:0.141334 51:0.0760336 52:0.15605099 53:0.084114097 54:0.14715201 55:0.107033 56:0.15394101 57:0.14079501 58:0.092624702 59:0.175804 60:0.24994799 61:0.24994799 62:0.189165 63:0.094047703 64:0.18039501 65:0.187171 66:0.131919 67:0.15088101 68:0.186139 69:0.188721 70:0.15816499 71:0.124355 72:0.13668901 73:0.171352 74:0.095056899 75:0.13315199 76:0.150662 77:0.112968 78:0.158968 79:0.23153099 80:0.179425 81:0.27158901 82:0.116121 83:0.105997 84:0.217522 85:0.114206 86:0.125572 87:0.27274999 88:0.27274999 89:0.23459101 90:0.27274999 91:0.162798 92:0.18063501 93:0.153478 94:0.118831 95:0.15110099 96:0.086777002 97:0.062118001 98:0.088878699 99:0.19008499 100:0.120621 101:0.18179099 102:0.15582301 103:0.106984 104:0.13714799 105:0.092463098 106:0.083760098 107:0.087540403 108:0.20341399 109:0.231336 110:0.162218 111:0.16102301 112:0.070022903 113:0.15422601 114:0.26709101 115:0.26709101 116:0.23448899 117:0.26709101 118:0.26709101 119:0.21664301 120:0.133837 121:0.15702 122:0.20447101 123:0.14179 124:0.079367697 125:0.14156801 126:0.19331899 127:0.17412101 128:0.103682 129:0.079926699 130:0.0937417 131:0.088629201 132:0.080728702 133:0.0698063 134:0.074546702 135:0.226292 136:0.25485101 137:0.120614 138:0.095738798 139:0.14189 140:0.101414 141:0.0589878 142:0.064154901 143:0.106323 144:0.192834 #
-0.12766156201059830621602486644406 1:0.107489 2:0.097555399 3:0.074678503 4:0.15306801 5:0.197442 6:0.16163801 7:0.082343899 8:0.143089 9:0.17414799 10:0.193519 11:0.110193 12:0.14622 13:0.25036201 14:0.282087 15:0.110766 16:0.081988901 17:0.0862308 18:0.182951 19:0.26596001 20:0.114454 21:0.075417303 22:0.105396 23:0.21005701 24:0.143333 25:0.098528698 26:0.133642 27:0.19012301 28:0.28723601 29:0.215132 30:0.161428 31:0.223502 32:0.22143801 33:0.096840799 34:0.098272599 35:0.117837 36:0.18780801 37:0.19031601 38:0.104473 39:0.160385 40:0.181885 41:0.21657 42:0.046250701 43:0.093680598 44:0.122337 45:0.27003199 46:0.181003 47:0.095203698 48:0.107566 49:0.0925804 50:0.123013 51:0.085695103 52:0.14482801 53:0.18025599 54:0.27137801 55:0.168547 56:0.202767 57:0.25101501 58:0.255202 59:0.146566 60:0.0750103 61:0.120883 62:0.145668 63:0.142928 64:0.18388 65:0.20486601 66:0.27942699 67:0.192267 68:0.057875901 69:0.060515799 70:0.085289799 71:0.114225 72:0.185568 73:0.33157501 74:0.179194 75:0.089132398 76:0.062498201 77:0.127716 78:0.085823298 79:0.065906599 80:0.103747 81:0.294222 82:0.33157501 83:0.3008 84:0.129336 85:0.149413 86:0.080129497 87:0.052127998 88:0.122763 89:0.149876 90:0.20101599 91:0.290402 92:0.115341 93:0.102028 94:0.072694398 95:0.084467597 96:0.077374697 97:0.112114 98:0.0663822 99:0.196952 100:0.197868 101:0.19443101 102:0.237455 103:0.193139 104:0.049061898 105:0.0340073 106:0.121539 107:0.085338198 108:0.111356 109:0.163118 110:0.230138 111:0.204017 112:0.18947101 113:0.061472099 114:0.050826099 115:0.146504 116:0.22875801 117:0.20007101 118:0.233968 119:0.235892 120:0.30516699 121:0.170029 122:0.033121299 123:0.0248319 124:0.0440678 125:0.122444 126:0.25175899 127:0.113796 128:0.172453 129:0.253286 130:0.191053 131:0.049670499 132:0.030108901 133:0.0904883 134:0.127866 135:0.16466799 136:0.238047 137:0.16914301 138:0.18702701 139:0.100805 140:0.091899402 141:0.0306997 142:0.036988601 143:0.109437 144:0.231178 #
0.27956141370555426250987807179627 1:0.0991854 2:0.18943 3:0.152013 4:0.095524698 5:0.088659003 6:0.109685 7:0.200867 8:0.112012 9:0.085020602 10:0.0562394 11:0.156827 12:0.211385 13:0.105249 14:0.144346 15:0.18912099 16:0.155348 17:0.056406699 18:0.110113 19:0.078491002 20:0.13243701 21:0.25774401 22:0.13788199 23:0.215481 24:0.210963 25:0.282621 26:0.15679701 27:0.093340702 28:0.104238 29:0.15631799 30:0.29120699 31:0.207293 32:0.173804 33:0.180894 34:0.233879 35:0.11625 36:0.228232 37:0.0373917 38:0.13318101 39:0.25863901 40:0.096391797 41:0.165636 42:0.15263499 43:0.098577902 44:0.081137501 45:0.093467899 46:0.0426751 47:0.080087401 48:0.13395301 49:0.075033396 50:0.224051 51:0.192066 52:0.185791 53:0.170314 54:0.13359401 55:0.070111297 56:0.125741 57:0.295165 58:0.20788699 59:0.204476 60:0.164058 61:0.212735 62:0.075957499 63:0.107759 64:0.12161 65:0.12895399 66:0.295165 67:0.240742 68:0.295165 69:0.188548 70:0.144163 71:0.055732701 72:0.142133 73:0.087627001 74:0.159794 75:0.26407099 76:0.086979501 77:0.112499 78:0.12561899 79:0.158858 80:0.100121 81:0.15334 82:0.17603099 83:0.16756301 84:0.22345001 85:0.172387 86:0.120629 87:0.059376299 88:0.138317 89:0.092070103 90:0.27352101 91:0.32591099 92:0.12613 93:0.095881298 94:0.0190222 95:0.049993001 96:0.055070501 97:0.106729 98:0.0998419 99:0.32591099 100:0.32591099 101:0.133313 102:0.107841 103:0.087772503 104:0.111702 105:0.032903899 106:0.0552155 107:0.094178498 108:0.32591099 109:0.108128 110:0.1235 111:0.21618401 112:0.178792 113:0.1217 114:0.088753499 115:0.18036699 116:0.0506633 117:0.108609 118:0.14058299 119:0.18203899 120:0.29390001 121:0.25206301 122:0.152052 123:0.075030498 124:0.0927132 125:0.044172399 126:0.16480701 127:0.26735899 128:0.18671601 129:0.175506 130:0.14466099 131:0.13169301 132:0.054646101 133:0.071629003 134:0.0528722 135:0.191497 136:0.190523 137:0.29390001 138:0.26169401 139:0.175229 140:0.090645 141:0.0617215 142:0.056701701 143:0.077964798 144:0.29390001 #
0.27956141370555426250987807179627 1:0.036151201 2:0.016553599 3:0.0178554 4:0.18881901 5:0.246061 6:0.23995499 7:0.243343 8:0.067722201 9:0.048001599 10:0.0314309 11:0.00296263 12:0.0246647 13:0.096373402 14:0.193012 15:0.16457701 16:0.269705 17:0.269705 18:0.23001701 19:0.117006 20:0.051892199 21:0.0224599 22:0.16288801 23:0.197198 24:0.14756501 25:0.182647 26:0.269705 27:0.239167 28:0.21422 29:0.079254001 30:0.035994399 31:0.098698497 32:0.124003 33:0.095018603 34:0.150344 35:0.227065 36:0.269705 37:0.124384 38:0.067717299 39:0.046677701 40:0.022328099 41:0.0592907 42:0.053464901 43:0.153687 44:0.29902899 45:0.29902899 46:0.29902899 47:0.29902899 48:0.182744 49:0.0294747 50:0.022765599 51:0.0210902 52:0.066742599 53:0.117916 54:0.232235 55:0.20192499 56:0.051991802 57:0.0414977 58:0.0233186 59:0.032311201 60:0.037873399 61:0.149417 62:0.26185 63:0.29902899 64:0.29902899 65:0.101813 66:0.101962 67:0.024199801 68:0.0206002 69:0.033305299 70:0.110752 71:0.191256 72:0.29902899 73:0.158516 74:0.034786899 75:0.0068223402 76:0.018986801 77:0.0322867 78:0.0294168 79:0.0743706 80:0.336344 81:0.336344 82:0.336344 83:0.104292 84:0.0179819 85:0.022300201 86:0.0234327 87:0.0165323 88:0.0343219 89:0.11768 90:0.336344 91:0.174216 92:0.0227434 93:0.0091290502 94:0.0029498599 95:0.0195753 96:0.0107108 97:0.0523936 98:0.27984601 99:0.336344 100:0.336344 101:0.137807 102:0.023361299 103:0.00291436 104:0.0089734299 105:0.0029065299 106:0.0184795 107:0.102604 108:0.336344 109:0.34598899 110:0.068777002 111:0.0092708198 112:0.0051008002 113:0.00471973 114:0.0056802998 115:0.038592 116:0.101248 117:0.34598899 118:0.34598899 119:0.0211291 120:0.0034727899 121:0.00165392 122:0.00303554 123:0.0053056302 124:0.0273415 125:0.095981702 126:0.34598899 127:0.34598899 128:0.106369 129:0.0084711798 130:0.00111447 131:0.0037603299 132:0.00170806 133:0.013161 134:0.090436198 135:0.31799001 136:0.34598899 137:0.046697199 138:0.0046987198 139:0.000307357 140:0.0029116401 141:0.00112666 142:0.0093200495 143:0.091196597 144:0.34598899 #
0.27956141370555426250987807179627 1:0.236964 2:0.194212 3:0.092692502 4:0.057013601 5:0.0491115 6:0.117721 7:0.065429203 8:0.088539198 9:0.238625 10:0.302957 11:0.302957 12:0.080366701 13:0.019892 14:0.020365899 15:0.0244061 16:0.0115607 17:0.084354401 18:0.302957 19:0.139805 20:0.108289 21:0.184249 22:0.122566 23:0.082729802 24:0.060751699 25:0.088987499 26:0.20651101 27:0.287314 28:0.302957 29:0.082128704 30:0.045884199 31:0.0227954 32:0.042378802 33:0.0335842 34:0.062685698 35:0.302957 36:0.302957 37:0.29197499 38:0.29197499 39:0.093944602 40:0.030892801 41:0.039402399 42:0.0194085 43:0.015684901 44:0.041925199 45:0.234807 46:0.29197499 47:0.29197499 48:0.082888402 49:0.064593598 50:0.0634249 51:0.0208667 52:0.047753099 53:0.055721901 54:0.137954 55:0.29197499 56:0.14607801 57:0.065898597 58:0.037169699 59:0.073795199 60:0.051546399 61:0.058652598 62:0.261206 63:0.29197499 64:0.29197499 65:0.22080401 66:0.106146 67:0.066962302 68:0.0576589 69:0.073053397 70:0.069031201 71:0.185891 72:0.268796 73:0.099297903 74:0.068089701 75:0.145492 76:0.147365 77:0.068513401 78:0.027103599 79:0.12907401 80:0.36283499 81:0.240485 82:0.22138 83:0.021666599 84:0.023344399 85:0.0067176698 86:0.0369661 87:0.0160257 88:0.129162 89:0.36283499 90:0.36283499 91:0.121015 92:0.062793501 93:0.101754 94:0.083565503 95:0.084005997 96:0.015264 97:0.057921398 98:0.277917 99:0.191109 100:0.10155 101:0.073876798 102:0.0645625 103:0.00512286 104:0.026020201 105:0.00281912 106:0.069809303 107:0.36283499 108:0.27972701 109:0.173926 110:0.032391101 111:0.0260539 112:0.0099196397 113:0.0359108 114:0.022420499 115:0.084532902 116:0.32301301 117:0.32301301 118:0.32301301 119:0.113195 120:0.0788408 121:0.0509311 122:0.0599165 123:0.060187001 124:0.076523803 125:0.28982201 126:0.27083099 127:0.092611901 128:0.058155999 129:0.046438001 130:0.0116373 131:0.038500801 132:0.031733699 133:0.058304299 134:0.32301301 135:0.26596999 136:0.25633001 137:0.105771 138:0.069067098 139:0.063365199 140:0.092861898 141:0.083541699 142:0.122379 143:0.27686399 144:0.25016099 #
0.27956141370555426250987807179627 1:0.178426 2:0.283759 3:0.092656903 4:0.0119109 5:0.039459601 6:0.0219984 7:0.0142359 8:0.039556202 9:0.15808199 10:0.29006699 11:0.319904 12:0.070864402 13:0.0051208301 14:0.0064131599 15:0.018978899 16:0.028391199 17:0.033902701 18:0.226227 19:0.319904 20:0.319904 21:0.242017 22:0.0444826 23:0.0071092299 24:0.0115141 25:0.0106524 26:0.045602199 27:0.319904 28:0.319904 29:0.15714601 30:0.0303338 31:0.0042858799 32:0.0020159199 33:0.015649401 34:0.0219243 35:0.029654499 36:0.319904 37:0.26689401 38:0.30890399 39:0.029408099 40:0.0068377201 41:0.034696501 42:0.022480801 43:0.033953 44:0.050664801 45:0.24928901 46:0.16215301 47:0.099428304 48:0.044906199 49:0.077409297 50:0.15794601 51:0.024973599 52:0.0622904 53:0.088716902 54:0.31345001 55:0.36815 56:0.100282 57:0.0137701 58:0.0031388199 59:0.00386629 60:0.0110886 61:0.0250536 62:0.045627002 63:0.36815 64:0.36815 65:0.0487324 66:0.034956701 67:0.064332202 68:0.051705401 69:0.0100989 70:0.068957098 71:0.104473 72:0.36815 73:0.387252 74:0.387252 75:0.387252 76:0.18671399 77:0.021873301 78:0.0117833 79:0.0059880102 80:0.033365302 81:0.387252 82:0.387252 83:0.082360901 84:0.0155331 85:0.0187901 86:0.0164226 87:0.016219901 88:0.0043376102 89:0.022503 90:0.387252 91:0.058409002 92:0.036067899 93:0.185734 94:0.065846898 95:0.0248999 96:0.0070162001 97:0.0112751 98:0.014417 99:0.040564701 100:0.036054499 101:0.0277989 102:0.0187458 103:0.0129817 104:0.031210899 105:0.0188541 106:0.0108689 107:0.016813001 108:0.0276384 109:0.49077699 110:0.0246915 111:0.0184916 112:0.018397899 113:0.0153167 114:0.0193363 115:0.0109224 116:0.0345826 117:0.49077699 118:0.49077699 119:0.037415601 120:0.0289477 121:0.037369698 122:0.0232537 123:0.016038099 124:0.049894199 125:0.081657998 126:0.49077699 127:0.0278056 128:0.0181734 129:0.0235184 130:0.0216299 131:0.031035401 132:0.0259082 133:0.0118499 134:0.0160903 135:0.0299487 136:0.046687499 137:0.037195198 138:0.027390201 139:0.028580399 140:0.043009199 141:0.0182303 142:0.0158493 143:0.014154 144:0.045049399 #
-0.13196340669614159413214338201215 1:0.12109 2:0.18351001 3:0.169544 4:0.129959 5:0.114727 6:0.117887 7:0.159119 8:0.102148 9:0.081512101 10:0.093611702 11:0.104473 12:0.163901 13:0.21672601 14:0.24046899 15:0.206218 16:0.20165899 17:0.160915 18:0.118089 19:0.124854 20:0.192811 21:0.165571 22:0.104644 23:0.12534 24:0.15917701 25:0.230694 26:0.211689 27:0.074644499 28:0.089197397 29:0.114674 30:0.229268 31:0.12689599 32:0.297887 33:0.157968 34:0.221707 35:0.222351 36:0.13357399 37:0.102809 38:0.078062497 39:0.0578719 40:0.120827 41:0.180722 42:0.164418 43:0.22280499 44:0.24163599 45:0.125348 46:0.121583 47:0.080503799 48:0.034600198 49:0.043340299 50:0.1648 51:0.21004599 52:0.27902901 53:0.33064601 54:0.15323199 55:0.126224 56:0.106004 57:0.109368 58:0.079138897 59:0.20848501 60:0.094650403 61:0.210089 62:0.18775 63:0.106593 64:0.13824201 65:0.083718501 66:0.070157297 67:0.080370001 68:0.25224501 69:0.231654 70:0.25238401 71:0.23095299 72:0.0978387 73:0.100354 74:0.136566 75:0.104572 76:0.092866801 77:0.13815799 78:0.100669 79:0.143529 80:0.16256601 81:0.081240103 82:0.10574 83:0.188168 84:0.224268 85:0.15203699 86:0.204613 87:0.067978397 88:0.12858699 89:0.130382 90:0.113782 91:0.12588599 92:0.13427199 93:0.15993901 94:0.1919 95:0.223873 96:0.060380101 97:0.115712 98:0.134203 99:0.124958 100:0.129968 101:0.20331299 102:0.347408 103:0.33070999 104:0.342549 105:0.073515698 106:0.159797 107:0.098985098 108:0.079758301 109:0.157654 110:0.204863 111:0.14545301 112:0.105944 113:0.16555101 114:0.0262226 115:0.088528499 116:0.069201902 117:0.098104998 118:0.192184 119:0.12601499 120:0.061383799 121:0.057713099 122:0.24331699 123:0.10551 124:0.115715 125:0.087824598 126:0.111682 127:0.222454 128:0.211145 129:0.248531 130:0.20960701 131:0.19923 132:0.033955399 133:0.084920898 134:0.091841899 135:0.131824 136:0.42325699 137:0.155301 138:0.119081 139:0.047036599 140:0.193648 141:0.022143601 142:0.121472 143:0.16989601 144:0.32541901 #
0.27956141370555426250987807179627 1:0.162063 2:0.0876249 3:0.17726 4:0.156863 5:0.184429 6:0.0940082 7:0.109118 8:0.038732599 9:0.081311502 10:0.110409 11:0.104986 12:0.297445 13:0.28098699 14:0.2369 15:0.156524 16:0.112903 17:0.034620401 18:0.073348798 19:0.102403 20:0.077036202 21:0.135298 22:0.104719 23:0.138943 24:0.181677 25:0.25498101 26:0.187621 27:0.10239 28:0.095842503 29:0.17999899 30:0.32279599 31:0.32279599 32:0.22901601 33:0.14875899 34:0.0484685 35:0.047945999 36:0.124252 37:0.041737799 38:0.060149901 39:0.16031501 40:0.211722 41:0.188017 42:0.2051 43:0.156896 44:0.034123499 45:0.039378099 46:0.230823 47:0.085979298 48:0.0861753 49:0.061388101 50:0.089018002 51:0.113728 52:0.151916 53:0.083660997 54:0.28494599 55:0.072640099 56:0.192453 57:0.30640301 58:0.30640301 59:0.13954701 60:0.121764 61:0.018026199 62:0.0055213901 63:0.044395201 64:0.28885999 65:0.25478101 66:0.30640301 67:0.13852 68:0.0588562 69:0.041004799 70:0.0193465 71:0.038986702 72:0.27773499 73:0.110867 74:0.063890196 75:0.029513 76:0.021328799 77:0.038943499 78:0.104504 79:0.272113 80:0.28141999 81:0.29363099 82:0.24578001 83:0.26302099 84:0.284679 85:0.097749799 86:0.080092601 87:0.053282801 88:0.023627 89:0.0679629 90:0.26072901 91:0.115041 92:0.0507291 93:0.0238743 94:0.0142455 95:0.0509459 96:0.041664701 97:0.133928 98:0.207381 99:0.29363099 100:0.29363099 101:0.23888899 102:0.125625 103:0.017834 104:0.064289898 105:0.031440999 106:0.0381626 107:0.067905597 108:0.29363099 109:0.199983 110:0.35844001 111:0.35844001 112:0.15519699 113:0.0896165 114:0.069832899 115:0.0082391798 116:0.0092494497 117:0.078668803 118:0.197806 119:0.300547 120:0.35844001 121:0.109085 122:0.089735098 123:0.0294766 124:0.015800299 125:0.026210699 126:0.1339 127:0.26730099 128:0.276355 129:0.282208 130:0.031339001 131:0.081381798 132:0.057147998 133:0.0417271 134:0.043051999 135:0.10526 136:0.115635 137:0.134941 138:0.16461299 139:0.025781499 140:0.17094301 141:0.048942 142:0.061641701 143:0.055762399 144:0.087356403 #
0.27956141370555426250987807179627 1:0.18172 2:0.28990099 3:0.076883703 4:0.022005299 5:0.043469299 6:0.0228329 7:0.041490801 8:0.032381099 9:0.069252297 10:0.28990099 11:0.28990099 12:0.126256 13:0.054321401 14:0.053743001 15:0.038111001 16:0.035513502 17:0.0297575 18:0.12747499 19:0.092127502 20:0.24823 21:0.089729004 22:0.0353393 23:0.087516896 24:0.055434801 25:0.218963 26:0.28990099 27:0.138037 28:0.28990099 29:0.28990099 30:0.113224 31:0.0620328 32:0.123881 33:0.064732999 34:0.200995 35:0.28990099 36:0.28990099 37:0.27481899 38:0.32503101 39:0.110731 40:0.066288903 41:0.052637398 42:0.098825604 43:0.034281101 44:0.0598897 45:0.15818501 46:0.205286 47:0.22379901 48:0.037929401 49:0.0462332 50:0.149343 51:0.093868598 52:0.056634799 53:0.081697002 54:0.20586 55:0.32503101 56:0.110385 57:0.073927797 58:0.065930702 59:0.047977101 60:0.092989899 61:0.073215999 62:0.14699601 63:0.32503101 64:0.32503101 65:0.074729197 66:0.059362099 67:0.15300199 68:0.151107 69:0.10166 70:0.106645 71:0.13367701 72:0.32503101 73:0.035720799 74:0.053264402 75:0.055392101 76:0.025528301 77:0.058276799 78:0.031578202 79:0.278543 80:0.35043401 81:0.22126999 82:0.18434399 83:0.055259701 84:0.0359024 85:0.0143356 86:0.062678002 87:0.030414499 88:0.322548 89:0.35043401 90:0.35043401 91:0.0357817 92:0.0481929 93:0.093042597 94:0.0266567 95:0.059091698 96:0.038936201 97:0.150204 98:0.27046901 99:0.116547 100:0.039207499 101:0.032774501 102:0.066374198 103:0.0115462 104:0.043506 105:0.034898899 106:0.216673 107:0.35043401 108:0.18601701 109:0.258028 110:0.018131901 111:0.0134351 112:0.00745882 113:0.0085992701 114:0.0115367 115:0.111966 116:0.33494401 117:0.33494401 118:0.259711 119:0.055608399 120:0.038318399 121:0.163946 122:0.15460899 123:0.024125701 124:0.0774156 125:0.167246 126:0.33494401 127:0.040297899 128:0.0117835 129:0.021435199 130:0.0047334102 131:0.0183159 132:0.0144206 133:0.153052 134:0.33494401 135:0.202968 136:0.082175903 137:0.0508283 138:0.016362401 139:0.121041 140:0.15977401 141:0.0081388596 142:0.092911601 143:0.33494401 144:0.26944199 #
0.27956141370555426250987807179627 1:0.214864 2:0.27596 3:0.120178 4:0.10235 5:0.083336703 6:0.039845899 7:0.0424616 8:0.034455199 9:0.050063301 10:0.065877803 11:0.121466 12:0.176321 13:0.34260201 14:0.34260201 15:0.228937 16:0.0546248 17:0.020826099 18:0.016836399 19:0.14983401 20:0.139083 21:0.101357 22:0.130852 23:0.188297 24:0.075621501 25:0.102375 26:0.075681597 27:0.0528672 28:0.030335899 29:0.039809801 30:0.098074101 31:0.34260201 32:0.34260201 33:0.310606 34:0.13725699 35:0.049768001 36:0.0149909 37:0.0067655402 38:0.0128964 39:0.036188498 40:0.25032201 41:0.406863 42:0.179914 43:0.0064015398 44:0.00038997701 45:0 46:0.00246524 47:0.0021538399 48:0.00117657 49:0.181949 50:0.406863 51:0.16386899 52:0.0024846599 53:0 54:0.00090396497 55:0.0031801299 56:0.0124983 57:0.0153496 58:0.245729 59:0.406863 60:0.194555 61:0.0218751 62:0.0016937701 63:0.00208874 64:0.0016641 65:0.00276652 66:0.00214653 67:0.21781 68:0.406863 69:0.174951 70:0.0051007001 71:0.00020619 72:0.00141224 73:0.0381485 74:0.0304075 75:0.049904998 76:0.118806 77:0.174081 78:0.104518 79:0.131805 80:0.0753038 81:0.034037601 82:0.0066027599 83:0.0067167301 84:0.070177898 85:0.34885699 86:0.349545 87:0.349545 88:0.18091901 89:0.063512102 90:0.014133 91:0.135831 92:0.107469 93:0.062635697 94:0.13063601 95:0.170636 96:0.082855701 97:0.089029603 98:0.070419498 99:0.085202903 100:0.057489399 101:0.041226 102:0.074777 103:0.349545 104:0.349545 105:0.349545 106:0.114684 107:0.055975299 108:0.0592153 109:0.0031331601 110:0.0045834598 111:0.0142247 112:0.20316 113:0.41150701 114:0.19471399 115:0.033856899 116:0.0062261 117:0.0103613 118:0.00183858 119:0.00119357 120:0.0036067099 121:0.173895 122:0.41150701 123:0.161156 124:0.0081951497 125:0.00096964202 126:0.0035066099 127:0.0076196599 128:0.00221533 129:0.0216949 130:0.247695 131:0.41150701 132:0.24672 133:0.019724799 134:0.0060569998 135:0.0237305 136:0.00316633 137:0.00050492201 138:0.0163064 139:0.162873 140:0.41150701 141:0.17577399 142:0.0044822898 143:0.00101426 144:0.0068052099 #
0.27956141370555426250987807179627 1:0.0147076 2:0.0116367 3:0.0150645 4:0.016251899 5:0.050558701 6:0.0132496 7:0.0124032 8:0.014007 9:0.0143286 10:0.0209218 11:0.034067601 12:0.59901601 13:0.082047299 14:0.0363538 15:0.0116097 16:0.0149721 17:0.0126167 18:0.029820601 19:0.0117559 20:0.018973799 21:0.40669599 22:0.063980997 23:0.065701902 24:0.0143022 25:0.015662801 26:0.0108253 27:0.0120965 28:0.0077612498 29:0.092294402 30:0.59901601 31:0.27391601 32:0.042457901 33:0.020531099 34:0.013991 35:0.0092887999 36:0.0071351398 37:0.0307739 38:0.040461902 39:0.342527 40:0.096574701 41:0.13974901 42:0.0081581101 43:0.0078253699 44:0.0045671901 45:0.016402099 46:0.10682 47:0.093331501 48:0.342527 49:0.21098199 50:0.342527 51:0.039113801 52:0.027806399 53:0.0143027 54:0.047573399 55:0.0230926 56:0.058960799 57:0.342527 58:0.1227 59:0.289644 60:0.036200698 61:0.0068840198 62:0.0289657 63:0.015843101 64:0.077346899 65:0.151692 66:0.31127399 67:0.251715 68:0.342527 69:0.087174997 70:0.022516301 71:0.063581698 72:0.0434618 73:0.0094055496 74:0.020662401 75:0.40472001 76:0.059074901 77:0.028897 78:0.00429508 79:0.0037577201 80:0.0051544802 81:0.00597174 82:0.0150078 83:0.039275602 84:0.40472001 85:0.113231 86:0.031189401 87:0.0082807997 88:0.00243366 89:0.0116281 90:0.0098071201 91:0.046491701 92:0.137503 93:0.40472001 94:0.19676299 95:0.13916799 96:0.016652999 97:0.00213487 98:0.0146821 99:0.022975801 100:0.085742898 101:0.172455 102:0.40472001 103:0.32960099 104:0.29938099 105:0.048984502 106:0.0040899199 107:0.0381658 108:0.0235072 109:0.020121301 110:0.060692899 111:0.353609 112:0.077172101 113:0.14785799 114:0.044805098 115:0.019051 116:0.043579798 117:0.018730501 118:0.0472847 119:0.137574 120:0.179538 121:0.111853 122:0.353609 123:0.11468 124:0.046259101 125:0.096180603 126:0.040407602 127:0.0296234 128:0.138033 129:0.353609 130:0.182429 131:0.22271501 132:0.067363501 133:0.0436402 134:0.053554598 135:0.0204728 136:0.0238615 137:0.161239 138:0.353609 139:0.158622 140:0.353609 141:0.17793299 142:0.14496499 143:0.15396599 144:0.044849001 #
0.27956141370555426250987807179627 1:0.057535399 2:0.18189199 3:0.128313 4:0.078910597 5:0.102766 6:0.092732497 7:0.034070902 8:0.048792101 9:0.039683301 10:0.0215827 11:0.078453802 12:0.101085 13:0.367726 14:0.367726 15:0.367726 16:0.042809401 17:0.0195083 18:0.0044785799 19:0.0503872 20:0.0433673 21:0.035134099 22:0.062610202 23:0.16287801 24:0.15878201 25:0.0887767 26:0.064904504 27:0.048721701 28:0.019257201 29:0.015879801 30:0.029483501 31:0.367726 32:0.367726 33:0.367726 34:0.068572097 35:0.022441201 36:0.0087715201 37:0 38:0.0057426002 39:0.0221607 40:0.210054 41:0.43729401 42:0.19343901 43:0.0111757 44:0.0023959901 45:5.7304301e-06 46:0.00203413 47:0.00124711 48:0.0043146 49:0.12868901 50:0.43729401 51:0.10079 52:0.00494187 53:0.00137822 54:0.00203545 55:0.00153229 56:0.0059623099 57:0.0119918 58:0.189989 59:0.43729401 60:0.234174 61:0.0088092396 62:0.0078547401 63:0.00140855 64:0.00281655 65:0.0021186101 66:0.00398533 67:0.121691 68:0.43729401 69:0.12500399 70:0.0047357199 71:0.00301604 72:0.00267156 73:0.162793 74:0.036045101 75:0.022066999 76:0.032465599 77:0.084125698 78:0.103458 79:0.037045799 80:0.0170912 81:0.111714 82:0.084453203 83:0.031758498 84:0.064275399 85:0.25533801 86:0.32043499 87:0.32043499 88:0.029555099 89:0.00627856 90:0.036145601 91:0.32043499 92:0.117597 93:0.0471812 94:0.038055599 95:0.0303539 96:0.018860999 97:0.00314624 98:0.0028538399 99:0.32043499 100:0.32043499 101:0.137862 102:0.230629 103:0.32043499 104:0.32043499 105:0.114257 106:0.0100703 107:0.0046975501 108:0.181444 109:0.0103276 110:0.0073613599 111:0.0214702 112:0.15644901 113:0.42737401 114:0.200929 115:0.0031377401 116:0.0042213998 117:0.0051830299 118:0.0034191201 119:0.0026972999 120:0.00132324 121:0.080867402 122:0.42737401 123:0.129557 124:0.0035673799 125:0.00204066 126:0.00221908 127:0.045609299 128:0.033173401 129:0.087905496 130:0.209279 131:0.42737401 132:0.209828 133:0.0088326596 134:0.0045484202 135:0.0135448 136:0.00344768 137:0.00115167 138:0.00194608 139:0.060984202 140:0.42737401 141:0.27105001 142:0.0044053402 143:0.00118986 144:0.0015347 #
-0.27956141370555426250987807179627 1:0.060598802 2:0.0298014 3:0.045705698 4:0.059744701 5:0.343629 6:0.306041 7:0.194029 8:0.12905 9:0.092101902 10:0.110809 11:0.075654797 12:0.087624997 13:0.073868401 14:0.26392499 15:0.192904 16:0.160813 17:0.148865 18:0.14195 19:0.0908444 20:0.050968401 21:0.066582203 22:0.16124301 23:0.351448 24:0.349042 25:0.17158701 26:0.108865 27:0.0952086 28:0.110484 29:0.075971499 30:0.0777959 31:0.070908502 32:0.16446 33:0.25191501 34:0.151748 35:0.121346 36:0.106119 37:0.177301 38:0.14519 39:0.137521 40:0.089200199 41:0.31667501 42:0.189579 43:0.164846 44:0.17036501 45:0.154918 46:0.156884 47:0.162679 48:0.135179 49:0.0980222 50:0.309607 51:0.17420299 52:0.14174099 53:0.155174 54:0.113316 55:0.15172701 56:0.150846 57:0.119274 58:0.063456103 59:0.163976 60:0.1565 61:0.127398 62:0.168185 63:0.098722003 64:0.165053 65:0.25976399 66:0.18974 67:0.14634401 68:0.205283 69:0.098924004 70:0.119169 71:0.20628101 72:0.089259297 73:0.0576334 74:0.0188621 75:0.0275637 76:0.0999102 77:0.194998 78:0.25516 79:0.31132299 80:0.16424599 81:0.091974199 82:0.070012502 83:0.032370701 84:0.0379094 85:0.065886401 86:0.116664 87:0.100636 88:0.094106302 89:0.105835 90:0.086127996 91:0.060991298 92:0.037971899 93:0.078066997 94:0.258508 95:0.36100999 96:0.36100999 97:0.36100999 98:0.26698199 99:0.137319 100:0.064474002 101:0.042221799 102:0.084999397 103:0.062772602 104:0.13507301 105:0.106991 106:0.17022 107:0.171134 108:0.138864 109:0.12573799 110:0.114263 111:0.079721399 112:0.092854597 113:0.205791 114:0.086912103 115:0.114034 116:0.178058 117:0.122175 118:0.173886 119:0.22314601 120:0.17043 121:0.171038 122:0.188453 123:0.086572297 124:0.100586 125:0.239415 126:0.13596401 127:0.154456 128:0.19726899 129:0.17589 130:0.111668 131:0.21523 132:0.072220802 133:0.111608 134:0.127157 135:0.192555 136:0.170816 137:0.29318601 138:0.22135399 139:0.179355 140:0.231224 141:0.143351 142:0.117057 143:0.17938501 144:0.18911999 #
0.27956141370555426250987807179627 1:0.087045498 2:0.24449299 3:0.278777 4:0.111265 5:0.109656 6:0.11213 7:0.166978 8:0.163027 9:0.109197 10:0.061181899 11:0.036168698 12:0.024285501 13:0.0283361 14:0.078150503 15:0.22776 16:0.278777 17:0.278777 18:0.22744299 19:0.109805 20:0.108474 21:0.100935 22:0.132165 23:0.27505499 24:0.155138 25:0.199912 26:0.113076 27:0.087534599 28:0.078934804 29:0.0215025 30:0.031018101 31:0.066545099 32:0.216261 33:0.278777 34:0.278777 35:0.207092 36:0.091685697 37:0.026717201 38:0.00179417 39:0.00308026 40:0.0124366 41:0.0433513 42:0.174954 43:0.264478 44:0.264478 45:0.196585 46:0.110519 47:0.083058603 48:0.0216664 49:0.0077747102 50:0.033927001 51:0.087591797 52:0.264478 53:0.264478 54:0.237701 55:0.069475397 56:0.0266237 57:0.055008799 58:0.109676 59:0.152877 60:0.239792 61:0.23706999 62:0.19747999 63:0.18555801 64:0.156859 65:0.206875 66:0.234743 67:0.210675 68:0.122939 69:0.073120996 70:0.141958 71:0.241392 72:0.25241399 73:0.16236401 74:0.107697 75:0.083039001 76:0.128033 77:0.19974799 78:0.12849 79:0.169414 80:0.20682 81:0.13717 82:0.240605 83:0.094499499 84:0.063610002 85:0.080155 86:0.229596 87:0.194922 88:0.118031 89:0.076091401 90:0.113385 91:0.18966 92:0.199266 93:0.25491899 94:0.25491899 95:0.220485 96:0.22192 97:0.20206 98:0.172452 99:0.113656 100:0.24814001 101:0.15169699 102:0.107207 103:0.207058 104:0.177378 105:0.080630504 106:0.073099099 107:0.059613999 108:0.12695999 109:0.105339 110:0.092742197 111:0.100284 112:0.127277 113:0.147553 114:0.122116 115:0.0658205 116:0.048255101 117:0.0767961 118:0.23521601 119:0.209281 120:0.235405 121:0.216114 122:0.101118 123:0.0406009 124:0.057394501 125:0.106558 126:0.268558 127:0.098697603 128:0.103694 129:0.135215 130:0.268558 131:0.23860399 132:0.093080603 133:0.0898012 134:0.067186303 135:0.107482 136:0.268558 137:0.268558 138:0.243521 139:0.268558 140:0.16611101 141:0.046839599 142:0.065761797 143:0.140338 144:0.268558 #
-0.27956141370555426250987807179627 1:0.074213803 2:0.030058 3:0.019467801 4:0.072195798 5:0.25641 6:0.26172599 7:0.168047 8:0.053939901 9:0.088330597 10:0.110162 11:0.062186901 12:0.018867601 13:0.059528701 14:0.28347999 15:0.28347999 16:0.28347999 17:0.110617 18:0.17738201 19:0.12623399 20:0.1481 21:0.065306999 22:0.0563122 23:0.105869 24:0.18252601 25:0.257303 26:0.146264 27:0.130254 28:0.099864997 29:0.106922 30:0.11608 31:0.143638 32:0.28347999 33:0.28347999 34:0.28347999 35:0.080571398 36:0.099010102 37:0.157793 38:0.0367966 39:0.0133887 40:0.0116231 41:0.065258399 42:0.245306 43:0.245306 44:0.183108 45:0.243196 46:0.214563 47:0.015136 48:0.00995945 49:0.0071763801 50:0.152334 51:0.245306 52:0.245306 53:0.17848299 54:0.245306 55:0.080277398 56:0.0294494 57:0.050055999 58:0.075719498 59:0.209491 60:0.245306 61:0.215276 62:0.091187701 63:0.139181 64:0.229674 65:0.025993001 66:0.0229808 67:0.0218351 68:0.210614 69:0.245306 70:0.17710599 71:0.165978 72:0.245306 73:0.25880799 74:0.25880799 75:0.11903 76:0.050021399 77:0.041605901 78:0.0419502 79:0.18624499 80:0.215644 81:0.230869 82:0.25880799 83:0.25880799 84:0.22693101 85:0.194252 86:0.25880799 87:0.212807 88:0.17512099 89:0.072993301 90:0.0900383 91:0.25196701 92:0.18539 93:0.099229999 94:0.068333201 95:0.072430201 96:0.020822501 97:0.063450798 98:0.075087398 99:0.138761 100:0.25880799 101:0.25880799 102:0.129724 103:0.107255 104:0.075973302 105:0.025113899 106:0.0204979 107:0.036110599 108:0.108823 109:0.180043 110:0.19323701 111:0.172157 112:0.253407 113:0.27323499 114:0.27323499 115:0.153137 116:0.055532798 117:0.091196202 118:0.27323499 119:0.0904053 120:0.063049003 121:0.094330601 122:0.186389 123:0.27323499 124:0.14675701 125:0.20746601 126:0.27323499 127:0.18643799 128:0.17694201 129:0.114645 130:0.162622 131:0.082126901 132:0.044616502 133:0.0365991 134:0.0522778 135:0.16917901 136:0.138998 137:0.149322 138:0.114049 139:0.169815 140:0.0680435 141:0.060546901 142:0.051637702 143:0.121904 144:0.220871 #
-0.27956141370555426250987807179627 1:0.0513211 2:0.155231 3:0.14659099 4:0.205259 5:0.13683701 6:0.104513 7:0.096313603 8:0.081918299 9:0.063662 10:0.10373 11:0.227671 12:0.28761101 13:0.228348 14:0.112057 15:0.105925 16:0.14811 17:0.094939098 18:0.035146501 19:0.061765201 20:0.22329199 21:0.25747699 22:0.206746 23:0.165115 24:0.090913698 25:0.040964399 26:0.049982999 27:0.039881401 28:0.14239199 29:0.25857601 30:0.37629199 31:0.30690101 32:0.22867499 33:0.088992402 34:0.085982502 35:0.084633797 36:0.0329885 37:0.0363915 38:0.042197 39:0.140855 40:0.195089 41:0.060463101 42:0.032758199 43:0.032386702 44:0.029252199 45:0.0128465 46:0.0206593 47:0.018461701 48:0.27393299 49:0.41873899 50:0.23811799 51:0.044017602 52:0.026836701 53:0.0179903 54:0.0183699 55:0.060808901 56:0.079947203 57:0.289379 58:0.29720101 59:0.100739 60:0.025095699 61:0.025512099 62:0.047713801 63:0.0244761 64:0.048291098 65:0.147222 66:0.41873899 67:0.41873899 68:0.20566501 69:0.0183201 70:0.040141799 71:0.029645599 72:0.0238222 73:0.098610602 74:0.0835355 75:0.085745104 76:0.049321901 77:0.066044703 78:0.041742001 79:0.026322801 80:0.030123901 81:0.163818 82:0.093307897 83:0.15132201 84:0.158327 85:0.19334701 86:0.137005 87:0.0618103 88:0.036072601 89:0.038833801 90:0.0843843 91:0.37364399 92:0.131199 93:0.051841501 94:0.018187299 95:0.0465887 96:0.0423165 97:0.0273048 98:0.111512 99:0.37364399 100:0.37364399 101:0.31901899 102:0.14969701 103:0.146587 104:0.105604 105:0.0888329 106:0.061466102 107:0.21061701 108:0.37364399 109:0.045480698 110:0.083511099 111:0.18982799 112:0.288903 113:0.145895 114:0.041805901 115:0.022737401 116:0.033898499 117:0.034678999 118:0.068655998 119:0.14591099 120:0.288903 121:0.288903 122:0.142445 123:0.025054799 124:0.0229099 125:0.0193896 126:0.029516499 127:0.21350101 128:0.111866 129:0.119581 130:0.232435 131:0.136437 132:0.085446298 133:0.0692368 134:0.212064 135:0.288903 136:0.288903 137:0.142765 138:0.256401 139:0.239142 140:0.124834 141:0.051868498 142:0.0495218 143:0.102508 144:0.288903 #
-0.27956141370555426250987807179627 1:0.079971299 2:0.175229 3:0.17065801 4:0.16575 5:0.16322599 6:0.119602 7:0.0955524 8:0.16797499 9:0.112912 10:0.086264998 11:0.142672 12:0.136077 13:0.096632101 14:0.260221 15:0.093343899 16:0.120947 17:0.243214 18:0.16624901 19:0.095998801 20:0.081077397 21:0.091341399 22:0.093399897 23:0.27228001 24:0.19870999 25:0.10973 26:0.18369099 27:0.14516599 28:0.113291 29:0.146383 30:0.144071 31:0.092978202 32:0.35702601 33:0.225181 34:0.124327 35:0.280646 36:0.159812 37:0.110991 38:0.112225 39:0.11363 40:0.097722702 41:0.16234 42:0.0708123 43:0.17772 44:0.17658199 45:0.15590499 46:0.128959 47:0.209098 48:0.19045199 49:0.174696 50:0.175513 51:0.038926501 52:0.164685 53:0.12510701 54:0.1682 55:0.110409 56:0.112509 57:0.10037 58:0.097792797 59:0.181063 60:0.14387301 61:0.222845 62:0.272493 63:0.211179 64:0.132136 65:0.163306 66:0.111222 67:0.112866 68:0.208231 69:0.135337 70:0.32248601 71:0.240301 72:0.194802 73:0.081201397 74:0.070130803 75:0.067425601 76:0.065713197 77:0.25168401 78:0.171791 79:0.167953 80:0.15679599 81:0.128022 82:0.13157199 83:0.179895 84:0.160466 85:0.12265 86:0.275989 87:0.19224 88:0.14787699 89:0.207715 90:0.142828 91:0.13707501 92:0.152059 93:0.072597697 94:0.172159 95:0.19591901 96:0.14675 97:0.191797 98:0.16933601 99:0.18791699 100:0.152693 101:0.182739 102:0.11514 103:0.142538 104:0.27802199 105:0.12537999 106:0.171929 107:0.207093 108:0.165977 109:0.119435 110:0.110526 111:0.10567 112:0.12706099 113:0.155826 114:0.129986 115:0.18491299 116:0.188412 117:0.181306 118:0.13194101 119:0.132029 120:0.085036002 121:0.126214 122:0.21995001 123:0.191477 124:0.29216701 125:0.190817 126:0.17646 127:0.169644 128:0.175221 129:0.140516 130:0.112962 131:0.224618 132:0.116155 133:0.084103398 134:0.119435 135:0.186942 136:0.15066899 137:0.18480299 138:0.17749 139:0.106376 140:0.243423 141:0.19943701 142:0.174376 143:0.13098601 144:0.20373601 #
0.27956141370555426250987807179627 1:0.33096299 2:0.142717 3:0.061882399 4:0.048544802 5:0.0506455 6:0.035281401 7:0.0408177 8:0.113601 9:0.33096299 10:0.26921201 11:0.077550597 12:0.036268901 13:0.0289419 14:0.0246464 15:0.044395398 16:0.032349601 17:0.16942701 18:0.33096299 19:0.33096299 20:0.038327899 21:0.032447699 22:0.019628299 23:0.0126146 24:0.0057444298 25:0.081075102 26:0.212616 27:0.33096299 28:0.33096299 29:0.032280501 30:0.0063009202 31:0.0105547 32:0.00148451 33:0.00310131 34:0.0182328 35:0.124956 36:0.33096299 37:0.20802701 38:0.068379797 39:0.065197997 40:0.064121097 41:0.031805102 42:0.062812701 43:0.043540999 44:0.189114 45:0.32355499 46:0.226566 47:0.063084997 48:0.0915538 49:0.073932499 50:0.111449 51:0.15569 52:0.200129 53:0.245772 54:0.32355499 55:0.32355499 56:0.0606503 57:0.0132718 58:0.0107005 59:0.0048625702 60:0.0047037899 61:0.0064356802 62:0.066681199 63:0.32355499 64:0.32355499 65:0.109623 66:0.079257801 67:0.044618599 68:0.065233402 69:0.075582303 70:0.0496874 71:0.14901599 72:0.32355499 73:0.108237 74:0.0111542 75:0.0222397 76:0.0150755 77:0.0159886 78:0.0222027 79:0.31754899 80:0.29868901 81:0.24909 82:0.25589001 83:0.079440802 84:0.0154084 85:0.020745501 86:0.0081536695 87:0.019176001 88:0.118469 89:0.113573 90:0.31490099 91:0.10918 92:0.084195003 93:0.028468199 94:0.0110302 95:0.0369245 96:0.051456299 97:0.31754899 98:0.31754899 99:0.10983 100:0.31754899 101:0.31754899 102:0.0403497 103:0.026095901 104:0.0243706 105:0.0286298 106:0.222528 107:0.161385 108:0.117377 109:0.323221 110:0.21716601 111:0.037916299 112:0.027848599 113:0.0049145599 114:0.0077872099 115:0.00872593 116:0.024033301 117:0.239191 118:0.323221 119:0.323221 120:0.25502601 121:0.0691218 122:0.0239577 123:0.0279145 124:0.014147 125:0.0521539 126:0.19492701 127:0.323221 128:0.323221 129:0.049594801 130:0.022203101 131:0.0113157 132:0.0094017098 133:0.010268 134:0.0151798 135:0.039743502 136:0.323221 137:0.323221 138:0.196227 139:0.0205875 140:0.0155636 141:0.00295804 142:0.0118171 143:0.0100266 144:0.039391499 #
0.27956141370555426250987807179627 1:0.288941 2:0.0945604 3:0.0811809 4:0.058137398 5:0.039758202 6:0.026168801 7:0.065078899 8:0.10548 9:0.33365899 10:0.33365899 11:0.089040399 12:0.054683499 13:0.0702601 14:0.080176003 15:0.040531199 16:0.17031699 17:0.167932 18:0.33365899 19:0.214343 20:0.090164602 21:0.084061697 22:0.040669698 23:0.0286022 24:0.038765401 25:0.094570503 26:0.15108401 27:0.29434001 28:0.230114 29:0.118658 30:0.079207301 31:0.050680801 32:0.067423902 33:0.067561299 34:0.158988 35:0.237508 36:0.33365899 37:0.36530101 38:0.064215302 39:0.046879601 40:0.053332299 41:0.0464385 42:0.025733501 43:0.084819198 44:0.152115 45:0.36530101 46:0.36530101 47:0.180916 48:0.039441802 49:0.052485298 50:0.043646801 51:0.0609034 52:0.062540703 53:0.163656 54:0.36530101 55:0.149656 56:0.083908603 57:0.074960299 58:0.053096302 59:0.046190299 60:0.0417042 61:0.113487 62:0.249429 63:0.293109 64:0.21716399 65:0.150657 66:0.091385297 67:0.069857299 68:0.051344302 69:0.033955101 70:0.073286399 71:0.158474 72:0.163664 73:0.12774 74:0.036241401 75:0.0278998 76:0.0164745 77:0.0126728 78:0.038031101 79:0.130181 80:0.20306 81:0.197097 82:0.109878 83:0.0193567 84:0.0171466 85:0.019192399 86:0.021190399 87:0.059752699 88:0.255674 89:0.32956699 90:0.28242001 91:0.20231099 92:0.035231698 93:0.031868499 94:0.023483099 95:0.0145735 96:0.0371635 97:0.13973799 98:0.29496399 99:0.32956699 100:0.138142 101:0.0046260799 102:0.0126967 103:0.0158724 104:0.020808 105:0.047410298 106:0.32956699 107:0.32956699 108:0.32956699 109:0.059294801 110:0.045891698 111:0.036385302 112:0.036182601 113:0.023496499 114:0.045029402 115:0.187021 116:0.310965 117:0.207305 118:0.096718401 119:0.089204498 120:0.102134 121:0.107559 122:0.055578601 123:0.0185367 124:0.058635298 125:0.109478 126:0.10184 127:0.224335 128:0.053908501 129:0.065638401 130:0.077573404 131:0.040008999 132:0.0437693 133:0.245335 134:0.310965 135:0.310965 136:0.310965 137:0.17953999 138:0.233971 139:0.310965 140:0.122402 141:0.0216194 142:0.076946698 143:0.15414301 144:0.310965 #
0.27956141370555426250987807179627 1:0.26838499 2:0.199808 3:0.12589701 4:0.105107 5:0.030069301 6:0.056087699 7:0.044606101 8:0.071478203 9:0.286374 10:0.286374 11:0.237378 12:0.068588801 13:0.0356218 14:0.023293 15:0.026697 16:0.0125598 17:0.0302359 18:0.286374 19:0.286374 20:0.286374 21:0.189932 22:0.164231 23:0.064853199 24:0.070503399 25:0.090433903 26:0.064745903 27:0.15245301 28:0.286374 29:0.286374 30:0.095011003 31:0.067483298 32:0.0407736 33:0.018250899 34:0.031850401 35:0.044550698 36:0.286374 37:0.301213 38:0.27851701 39:0.058745801 40:0.0111114 41:0.0255406 42:0.0154918 43:0.0126831 44:0.0553241 45:0.301213 46:0.301213 47:0.301213 48:0.055501301 49:0.0385876 50:0.067704 51:0.0130735 52:0.0152187 53:0.057948101 54:0.301213 55:0.27240399 56:0.30035201 57:0.027293401 58:0.0037418799 59:0.0050650202 60:0.0039520301 61:0.00556402 62:0.025394199 63:0.301213 64:0.18309399 65:0.177342 66:0.0197988 67:0.084853403 68:0.146461 69:0.020411 70:0.0248415 71:0.052627299 72:0.301213 73:0.16286699 74:0.273251 75:0.082903802 76:0.092154801 77:0.093901403 78:0.0378104 79:0.28272599 80:0.22358599 81:0.138989 82:0.29575101 83:0.21303099 84:0.055362199 85:0.066738397 86:0.066351101 87:0.0107067 88:0.177497 89:0.226634 90:0.30008799 91:0.032346599 92:0.0122222 93:0.0092136702 94:0.0140307 95:0.038053501 96:0.01991 97:0.231444 98:0.240017 99:0.068265602 100:0.112548 101:0.014995 102:0.0115531 103:0.0142527 104:0.023119001 105:0.0083044497 106:0.30008799 107:0.30008799 108:0.30008799 109:0.29464999 110:0.079262197 111:0.0123922 112:0.0079185497 113:0.0071723298 114:0.0096283602 115:0.0312365 116:0.080334902 117:0.34373501 118:0.208333 119:0.083382003 120:0.0510966 121:0.12849499 122:0.235587 123:0.0480574 124:0.046554402 125:0.095802903 126:0.34373501 127:0.15618099 128:0.021945 129:0.0133053 130:0.0045206398 131:0.016915699 132:0.0051912698 133:0.17026199 134:0.29263601 135:0.34373501 136:0.16382 137:0.0668201 138:0.062467799 139:0.182647 140:0.298204 141:0.023452301 142:0.044643302 143:0.116658 144:0.29820901 #
-0.27956141370555426250987807179627 1:0.050572701 2:0.0302398 3:0.00794385 4:0.0107437 5:0.0207415 6:0.01561 7:0.237932 8:0.39083999 9:0.138126 10:0.140148 11:0.083548598 12:0.043402199 13:0.0084627401 14:0.0219438 15:0.0173057 16:0.136705 17:0.22106101 18:0.120836 19:0.030294901 20:0.0098137399 21:0.0072315801 22:0.0036130899 23:0.0130762 24:0.053377099 25:0.39083999 26:0.39083999 27:0.125623 28:0.046914302 29:0.033777699 30:0.0308097 31:0.0106174 32:0.023895601 33:0.0819951 34:0.39083999 35:0.39083999 36:0.095945597 37:0.164113 38:0.075861402 39:0.056929499 40:0.0086865602 41:0.016794801 42:0.021537401 43:0.066993803 44:0.129931 45:0.232216 46:0.22840799 47:0.109205 48:0.046231698 49:0.0105513 50:0.0152176 51:0.0118366 52:0.048854601 53:0.184562 54:0.330134 55:0.089434199 56:0.0446156 57:0.0527196 58:0.023733299 59:0.045648701 60:0.110796 61:0.330134 62:0.319029 63:0.19496299 64:0.216695 65:0.045924 66:0.039897099 67:0.0260198 68:0.039145801 69:0.127277 70:0.330134 71:0.330134 72:0.330134 73:0.034402099 74:0.0129086 75:0.0294326 76:0.0026412799 77:0.0256052 78:0.070864499 79:0.295614 80:0.34231299 81:0.069526099 82:0.0086426698 83:0.0066010901 84:0.0096783899 85:0.0024504301 86:0.0092136497 87:0.062792197 88:0.34951901 89:0.34951901 90:0.076749697 91:0.056259099 92:0.016364601 93:0.037953701 94:0.0047421898 95:0.100751 96:0.068866 97:0.34951901 98:0.34951901 99:0.082228303 100:0.015408 101:0.0179909 102:0.017405899 103:0.00324514 104:0.062709399 105:0.088245399 106:0.32979301 107:0.34951901 108:0.101718 109:0.0100375 110:0.0065166 111:0.0055814399 112:0.0055541401 113:0.0129262 114:0.0572147 115:0.33679101 116:0.33679101 117:0.081266999 118:0.056200799 119:0.015926201 120:0.0138377 121:0.0096250298 122:0.020121301 123:0.11926 124:0.33679101 125:0.33679101 126:0.164215 127:0.0090374397 128:0.0067480602 129:0.00126268 130:0.00036752201 131:0.0136639 132:0.041690402 133:0.33679101 134:0.33679101 135:0.086172603 136:0.0252387 137:0.0080568502 138:0.0118204 139:0.0027942001 140:0.034389399 141:0.110822 142:0.33679101 143:0.33679101 144:0.099375203 #
-0.27956141370555426250987807179627 1:0.084962003 2:0.0096336696 3:0.00120921 4:0.00228602 5:0.0065229 6:0.0057031498 7:0.0779908 8:0.35322401 9:0.35322401 10:0.063978299 11:0.0087403301 12:0.00266874 13:0.0011870801 14:0.0047371499 15:0.00159563 16:0.0462793 17:0.35322401 18:0.35322401 19:0.088750601 20:0.0224557 21:0.0100736 22:0.0097065298 23:0.0140915 24:0.040048201 25:0.094486803 26:0.25734401 27:0.35322401 28:0.087977901 29:0.0315625 30:0.0191967 31:0.0043229801 32:0.0141328 33:0.049817499 34:0.077086203 35:0.35322401 36:0.35322401 37:0.053656101 38:0.0102426 39:0.0028940199 40:0.00201546 41:0.00388717 42:0.00079957501 43:0.034882601 44:0.30785301 45:0.30785301 46:0.166546 47:0.048742302 48:0.0192644 49:0.0056444402 50:0.00475511 51:0.0042462898 52:0.043064501 53:0.304811 54:0.30785301 55:0.134948 56:0.067382 57:0.035150699 58:0.0029618701 59:0.021700799 60:0.0421618 61:0.065756001 62:0.30685899 63:0.30785301 64:0.30785301 65:0.295499 66:0.122489 67:0.0252135 68:0.069686703 69:0.0643797 70:0.079359204 71:0.236104 72:0.30785301 73:0.059403501 74:0.0233976 75:0.0242 76:0.0137398 77:0.025412001 78:0.047077201 79:0.102952 80:0.32021099 81:0.317215 82:0.050257601 83:0.057059702 84:0.0333803 85:0.00754211 86:0.0268778 87:0.0865229 88:0.136058 89:0.22975101 90:0.28813899 91:0.114035 92:0.0130508 93:0.0166249 94:0.0068327002 95:0.026250301 96:0.0144135 97:0.110907 98:0.36488301 99:0.36488301 100:0.103628 101:0.062240601 102:0.017477401 103:0.0088714603 104:0.0466833 105:0.0300467 106:0.167538 107:0.36488301 108:0.36488301 109:0.089585103 110:0.092187501 111:0.0414901 112:0.0069055399 113:0.042458098 114:0.094896197 115:0.17532501 116:0.200239 117:0.20962299 118:0.26849401 119:0.236241 120:0.12555 121:0.02932 122:0.138695 123:0.192977 124:0.26849401 125:0.26849401 126:0.19112401 127:0.085460901 128:0.082203001 129:0.0134445 130:0.0072947498 131:0.035094202 132:0.039872799 133:0.17153899 134:0.26849401 135:0.26849401 136:0.18081699 137:0.094927602 138:0.067593098 139:0.032828402 140:0.128923 141:0.119893 142:0.26849401 143:0.26849401 144:0.241842 #
-0.27956141370555426250987807179627 1:0.25225201 2:0.044707101 3:0.0222586 4:0.0090436703 5:0.027386701 6:0.0733696 7:0.11074 8:0.079778902 9:0.28403199 10:0.283867 11:0.062025599 12:0.0250639 13:0.018792899 14:0.0457872 15:0.060178202 16:0.16011401 17:0.19495 18:0.33938599 19:0.114798 20:0.044879399 21:0.028593 22:0.0110664 23:0.0425165 24:0.132449 25:0.33938599 26:0.17163999 27:0.150938 28:0.14271 29:0.058253199 30:0.028297801 31:0.0177537 32:0.069260597 33:0.14108799 34:0.33938599 35:0.33938599 36:0.26863101 37:0.136254 38:0.036969502 39:0.0201979 40:0.015412 41:0.041602101 42:0.042413902 43:0.099325903 44:0.15669499 45:0.31090799 46:0.287229 47:0.038704 48:0.0131164 49:0.0078595197 50:0.018393399 51:0.0132564 52:0.039051998 53:0.112744 54:0.34802899 55:0.186296 56:0.047446899 57:0.021278299 58:0.0243211 59:0.055356801 60:0.082162701 61:0.27390701 62:0.31533101 63:0.34802899 64:0.34802899 65:0.074343801 66:0.0130954 67:0.0188148 68:0.024629399 69:0.0280586 70:0.081906803 71:0.146368 72:0.34802899 73:0.058821902 74:0.0404245 75:0.025989 76:0.032592401 77:0.0447293 78:0.074034199 79:0.42357501 80:0.20292599 81:0.072153501 82:0.056757201 83:0.0286924 84:0.020628599 85:0.018301999 86:0.069062904 87:0.109386 88:0.42357501 89:0.42357501 90:0.134344 91:0.109185 92:0.073679 93:0.033882499 94:0.056551602 95:0.069917798 96:0.0241553 97:0.087680697 98:0.095946103 99:0.068182401 100:0.080297701 101:0.048568901 102:0.024158699 103:0.049493302 104:0.079402201 105:0.037985802 106:0.42357501 107:0.319435 108:0.086505704 109:0.13680799 110:0.021141199 111:0.0076502101 112:0.0194364 113:0.042840201 114:0.053373799 115:0.322707 116:0.322707 117:0.25197101 118:0.322707 119:0.047030199 120:0.0038272501 121:0.0266128 122:0.031201201 123:0.0207332 124:0.124124 125:0.20036 126:0.322707 127:0.114055 128:0.0203842 129:0.0112392 130:0.017705901 131:0.033353999 132:0.0220132 133:0.244436 134:0.292209 135:0.17163201 136:0.322707 137:0.050118499 138:0.0122494 139:0.018533999 140:0.030104499 141:0.019815199 142:0.074278601 143:0.15619799 144:0.322707 #
0.24649567838059849300691439566435 1:0.114252 2:0.32728201 3:0.183815 4:0.147836 5:0.15720899 6:0.075889401 7:0.232713 8:0.119854 9:0.0460671 10:0.10174 11:0.161368 12:0.079696603 13:0.086704999 14:0.086122602 15:0.097783998 16:0.26491299 17:0.126194 18:0.079716399 19:0.0182577 20:0.122446 21:0.145694 22:0.14589299 23:0.290838 24:0.140443 25:0.29184499 26:0.130327 27:0.0195619 28:0.044186998 29:0.183476 30:0.135699 31:0.075994201 32:0.095211297 33:0.199246 34:0.35433999 35:0.23311201 36:0.0817184 37:0.0582048 38:0.20770501 39:0.137036 40:0.0837823 41:0.125357 42:0.062128801 43:0.109619 44:0.186849 45:0.117372 46:0.078360997 47:0.14669301 48:0.118771 49:0.068083301 50:0.185908 51:0.26418 52:0.306178 53:0.368007 54:0.15061 55:0.105483 56:0.227097 57:0.181628 58:0.125075 59:0.141275 60:0.113952 61:0.17791399 62:0.13046899 63:0.10129 64:0.134794 65:0.16025899 66:0.17166699 67:0.147074 68:0.242659 69:0.196152 70:0.14460801 71:0.122266 72:0.098599099 73:0.046702199 74:0.203042 75:0.156691 76:0.102088 77:0.17736501 78:0.127499 79:0.144778 80:0.065063 81:0.052531801 82:0.044053201 83:0.217434 84:0.186976 85:0.100528 86:0.091434203 87:0.116673 88:0.177387 89:0.113613 90:0.097158298 91:0.133908 92:0.183377 93:0.156682 94:0.112705 95:0.34491599 96:0.34491599 97:0.34491599 98:0.088169701 99:0.093901902 100:0.225741 101:0.182942 102:0.148305 103:0.090862103 104:0.184938 105:0.0954803 106:0.125655 107:0.0571265 108:0.181885 109:0.0648693 110:0.071700901 111:0.079181403 112:0.061059501 113:0.109849 114:0.129897 115:0.237909 116:0.13970999 117:0.105749 118:0.105447 119:0.100539 120:0.117666 121:0.123143 122:0.21576899 123:0.15655801 124:0.171634 125:0.080133699 126:0.072977699 127:0.27189699 128:0.13185801 129:0.095537201 130:0.053909 131:0.12738299 132:0.112556 133:0.25422099 134:0.12761299 135:0.203501 136:0.20544501 137:0.2674 138:0.34133899 139:0.17506801 140:0.216645 141:0.184627 142:0.26152 143:0.116066 144:0.142003 #
0.27956141370555426250987807179627 1:0.072143003 2:0.302616 3:0.302616 4:0.225223 5:0.134193 6:0.0057464102 7:0.0100847 8:0.0238067 9:0.00701515 10:0.067017101 11:0.302616 12:0.233677 13:0.249313 14:0.302616 15:0.049871001 16:0.0145694 17:0.0175894 18:0.00546152 19:0.0169995 20:0.037107501 21:0.180537 22:0.223847 23:0.29175001 24:0.189826 25:0.062934399 26:0.021842901 27:0.0177006 28:0.019409999 29:0.0290209 30:0.16546901 31:0.302616 32:0.302616 33:0.090817302 34:0.027751699 35:0.0150356 36:0.0206268 37:0.0123328 38:0.024374699 39:0.043800499 40:0.34713399 41:0.34713399 42:0.056400001 43:0.0039462498 44:0.0027694099 45:0.00152333 46:0.0092696398 47:0.0134669 48:0.065887898 49:0.34713399 50:0.34713399 51:0.045150898 52:0.00348877 53:0.00167404 54:0.0045292499 55:0.0058321999 56:0.0113256 57:0.097657397 58:0.34713399 59:0.34713399 60:0.0488513 61:0.0028230899 62:0.00116658 63:0.0059165098 64:0.0225072 65:0.024039401 66:0.057202701 67:0.34713399 68:0.34713399 69:0.055780601 70:0.00047951299 71:0.00064236799 72:0.019101299 73:0.0111764 74:0.0022924701 75:0.00488362 76:0.037865799 77:0.132433 78:0.248257 79:0.25143301 80:0.088233396 81:0.017668501 82:0.0126744 83:0.0222512 84:0.143207 85:0.324761 86:0.324761 87:0.126178 88:0.092001103 89:0.062890403 90:0.0197048 91:0.020436 92:0.0148827 93:0.030827301 94:0.057458501 95:0.074007802 96:0.19382399 97:0.324761 98:0.28834599 99:0.0236469 100:0.0128986 101:0.022995099 102:0.0609488 103:0.324761 104:0.324761 105:0.116659 106:0.183175 107:0.28885701 108:0.028144 109:0.00373915 110:0.0194198 111:0.112592 112:0.34814599 113:0.34814599 114:0.046914902 115:0.0068977899 116:0.00467047 117:0.00483954 118:0.0104596 119:0.011712 120:0.035502501 121:0.34814599 122:0.34814599 123:0.045908801 124:0.00290238 125:0.00096672302 126:0.0103433 127:0.00102898 128:0.0109954 129:0.053656701 130:0.34814599 131:0.34814599 132:0.044971298 133:0.0130235 134:0.0252301 135:0.0030535799 136:0.0076834802 137:0.00321993 138:0.0162383 139:0.34814599 140:0.34814599 141:0.036696199 142:0.0103177 143:0.0076600201 144:0.0099752499 #
0.27956141370555426250987807179627 1:0.016878299 2:0.060965601 3:0.046737898 4:0.158136 5:0.23737299 6:0.212818 7:0.144942 8:0.073580399 9:0.026494401 10:0.0104082 11:0.055700202 12:0.0601914 13:0.217935 14:0.30098701 15:0.246749 16:0.081104398 17:0.035730299 18:0.0156368 19:0.0293345 20:0.0193021 21:0.032682698 22:0.0532225 23:0.115651 24:0.298803 25:0.30098701 26:0.30098701 27:0.075226597 28:0.0245599 29:0.044429298 30:0.103983 31:0.30098701 32:0.30098701 33:0.17625999 34:0.219733 35:0.221892 36:0.073016897 37:0.0025585899 38:0.0179164 39:0.027594499 40:0.33562401 41:0.341461 42:0.20015199 43:0.037420601 44:0.0115029 45:0.0056671398 46:0.0560885 47:0.0041892901 48:0.0229188 49:0.27853599 50:0.341461 51:0.116983 52:0.095526502 53:0.047698401 54:0.0501583 55:0.00841532 56:0.016590901 57:0.062089801 58:0.341461 59:0.341461 60:0.118749 61:0.041701201 62:0.0249702 63:0.028641401 64:0.0410138 65:0.0095913503 66:0.034290299 67:0.32395601 68:0.341461 69:0.094921403 70:0.077063501 71:0.0532469 72:0.047054701 73:0.026601899 74:0.0290784 75:0.0320733 76:0.032695599 77:0.108143 78:0.188871 79:0.26600799 80:0.30588701 81:0.074306101 82:0.0259006 83:0.025828101 84:0.099044196 85:0.30588701 86:0.30588701 87:0.246507 88:0.214376 89:0.23120999 90:0.072777301 91:0.043593001 92:0.10403 93:0.134782 94:0.088434301 95:0.166628 96:0.10589 97:0.076637201 98:0.113697 99:0.0765495 100:0.045169499 101:0.0671755 102:0.21653099 103:0.30588701 104:0.30588701 105:0.2221 106:0.092485502 107:0.083768196 108:0.067086101 109:0.0135797 110:0.013946 111:0.104835 112:0.35512099 113:0.35512099 114:0.186142 115:0.050057001 116:0.0323525 117:0.035362899 118:0.0127099 119:0.0184232 120:0.046801802 121:0.23809101 122:0.35512099 123:0.109862 124:0.0614218 125:0.042412799 126:0.025520099 127:0.0440429 128:0.0417035 129:0.243466 130:0.35512099 131:0.35512099 132:0.115342 133:0.0229671 134:0.0162919 135:0.034110099 136:0.071331598 137:0.070089802 138:0.111636 139:0.24089301 140:0.27204701 141:0.037954599 142:0.0211611 143:0.0177535 144:0.049832601 #
0.27956141370555426250987807179627 1:0.29444501 2:0.0460402 3:0.12154 4:0.037124299 5:0.121779 6:0.098773703 7:0.037188001 8:0.035691399 9:0.30100101 10:0.30100101 11:0.020669799 12:0.0186636 13:0.068525903 14:0.30100101 15:0.21732 16:0.065807201 17:0.052987099 18:0.30100101 19:0.0125866 20:0.041314699 21:0.151665 22:0.081041902 23:0.29769799 24:0.283131 25:0.067986801 26:0.053323898 27:0.066198103 28:0.0115453 29:0.0348433 30:0.087090299 31:0.13989399 32:0.29189101 33:0.30100101 34:0.112436 35:0.101531 36:0.056687899 37:0.28877699 38:0.020565299 39:0.0245251 40:0.118439 41:0.26538801 42:0.194198 43:0.065798402 44:0.040199898 45:0.266442 46:0.28877699 47:0.080812901 48:0.040396001 49:0.060260501 50:0.082235597 51:0.28877699 52:0.26360101 53:0.069999799 54:0.279755 55:0.0056617698 56:0.020134499 57:0.066795297 58:0.28877699 59:0.26302701 60:0.18741301 61:0.060153499 62:0.064753301 63:0.034523699 64:0.016323 65:0.043927401 66:0.064028099 67:0.227403 68:0.159192 69:0.202388 70:0.19048201 71:0.098483197 72:0.060891099 73:0.019153301 74:0.0274102 75:0.17359699 76:0.16358601 77:0.307852 78:0.307852 79:0.0540943 80:0.051052399 81:0.058142401 82:0.023773599 83:0.0459718 84:0.168492 85:0.17527901 86:0.27031001 87:0.2638 88:0.085221998 89:0.071377397 90:0.063851297 91:0.016097501 92:0.0268154 93:0.210352 94:0.307852 95:0.307852 96:0.198338 97:0.0177464 98:0.020179501 99:0.0256314 100:0.0421082 101:0.072943702 102:0.22092301 103:0.26519799 104:0.307852 105:0.122482 106:0.049987402 107:0.035073701 108:0.0659049 109:0.0124657 110:0.037996899 111:0.103208 112:0.33849499 113:0.263744 114:0.122532 115:0.046367999 116:0.035912 117:0.0321992 118:0.0163041 119:0.043005001 120:0.083987102 121:0.31905001 122:0.33849499 123:0.213589 124:0.075646199 125:0.050312601 126:0.019683 127:0.020380599 128:0.037075698 129:0.0592185 130:0.236408 131:0.33849499 132:0.206643 133:0.048953202 134:0.0198096 135:0.030056 136:0.0090909703 137:0.0140452 138:0.0485311 139:0.32669699 140:0.33849499 141:0.232278 142:0.027742 143:0.0094676102 144:0.0041977898 #
-0.075363892593432790789620412397198 1:0.100959 2:0.074910603 3:0.056883801 4:0.059546299 5:0.087654397 6:0.0389296 7:0.107265 8:0.21324401 9:0.20318501 10:0.115141 11:0.073648997 12:0.0842316 13:0.164611 14:0.25337601 15:0.108645 16:0.20378301 17:0.25661299 18:0.25661299 19:0.162838 20:0.211375 21:0.0991721 22:0.038134199 23:0.0854614 24:0.105631 25:0.25661299 26:0.211192 27:0.163203 28:0.0939022 29:0.106851 30:0.0884372 31:0.162588 32:0.25661299 33:0.231814 34:0.25661299 35:0.25661299 36:0.146531 37:0.173757 38:0.080494903 39:0.048530102 40:0.093667299 41:0.2324 42:0.133901 43:0.12375 44:0.179805 45:0.235411 46:0.234864 47:0.15816 48:0.093566097 49:0.117333 50:0.237983 51:0.129968 52:0.088519797 53:0.100237 54:0.16559801 55:0.114354 56:0.094930798 57:0.060479999 58:0.102658 59:0.237983 60:0.209222 61:0.237983 62:0.237983 63:0.13439099 64:0.21090201 65:0.138887 66:0.061740201 67:0.0631679 68:0.237983 69:0.20906401 70:0.21888 71:0.223212 72:0.124957 73:0.133949 74:0.192931 75:0.085848801 76:0.026833201 77:0.109201 78:0.13134301 79:0.25779399 80:0.25779399 81:0.135179 82:0.078616999 83:0.106364 84:0.076853298 85:0.10827 86:0.168635 87:0.148625 88:0.25779399 89:0.25779399 90:0.156229 91:0.140625 92:0.15718099 93:0.097707197 94:0.038264699 95:0.14906301 96:0.157893 97:0.16338199 98:0.23202799 99:0.221019 100:0.088703804 101:0.081518598 102:0.101146 103:0.086794399 104:0.161699 105:0.170312 106:0.241791 107:0.25779399 108:0.25779399 109:0.109153 110:0.103617 111:0.081911303 112:0.100405 113:0.18135899 114:0.157242 115:0.199764 116:0.233275 117:0.18186601 118:0.112566 119:0.064546198 120:0.0468027 121:0.067627497 122:0.22896001 123:0.233275 124:0.195519 125:0.233073 126:0.192873 127:0.049246401 128:0.039094102 129:0.126379 130:0.144372 131:0.145722 132:0.16182099 133:0.167632 134:0.233275 135:0.233275 136:0.075590201 137:0.036883999 138:0.090560697 139:0.14233001 140:0.186262 141:0.233275 142:0.233275 143:0.233275 144:0.233275 #
-0.27956141370555426250987807179627 1:0.037549999 2:0.35413599 3:0.35413599 4:0.0250259 5:0.019354399 6:0.011291 7:0.0029448201 8:0.0070703202 9:0.0146454 10:0.108787 11:0.35413599 12:0.35413599 13:0.0283734 14:0.0479431 15:0.0296428 16:0.013253 17:0.0051340698 18:0.0122337 19:0.064642102 20:0.35413599 21:0.35413599 22:0.025964901 23:0.0050179898 24:0.0228067 25:0.054227401 26:0.066213302 27:0.047448501 28:0.100111 29:0.31772199 30:0.28613099 31:0.057940699 32:0.0734981 33:0.062064402 34:0.034486402 35:0.0381593 36:0.0439918 37:0.141519 38:0.39427501 39:0.116997 40:0.069483899 41:0.39427501 42:0.107296 43:0.037611 44:0.0245791 45:0.0128337 46:0.047003102 47:0.068231702 48:0.0030704699 49:0.096578598 50:0.39427501 51:0.15592501 52:0.034648798 53:0.026946301 54:0.0109936 55:0.057539601 56:0.098898903 57:0.068193898 58:0.083958402 59:0.39427501 60:0.1943 61:0.039496001 62:0.0082056997 63:0.018670799 64:0.0093216402 65:0.0084855203 66:0.0055998 67:0.122646 68:0.39427501 69:0.209658 70:0.016083499 71:0.00311481 72:0.00409044 73:0.143172 74:0.34266299 75:0.34266299 76:0.098493204 77:0.049128201 78:0.106355 79:0.192856 80:0.237647 81:0.14282601 82:0.19094101 83:0.222679 84:0.153308 85:0.118231 86:0.25058499 87:0.121499 88:0.085217297 89:0.170174 90:0.126463 91:0.064015001 92:0.057842501 93:0.20725299 94:0.26332599 95:0.17853101 96:0.079666004 97:0.0582368 98:0.079037704 99:0.056414202 100:0.063981801 101:0.0527156 102:0.066636801 103:0.177641 104:0.34266299 105:0.080891103 106:0.038818698 107:0.089575902 108:0.057550799 109:0.040174901 110:0.0502811 111:0.041116901 112:0.102119 113:0.44644499 114:0.123971 115:0.0189477 116:0.0128069 117:0.0172941 118:0.0054668202 119:0.0065088701 120:0.0084880004 121:0.15519901 122:0.44644499 123:0.16070201 124:0.0074342601 125:0.000204401 126:0.0024138701 127:0.0128631 128:0.0151868 129:0.0148622 130:0.19615801 131:0.44644499 132:0.053661201 133:0.0069276001 134:0.0121485 135:0.0087896399 136:0.00289071 137:0.0021668701 138:0.0046842201 139:0.25158599 140:0.44644499 141:0.100641 142:0.000626044 143:0.00060187199 144:0.0031862401 #
-0.27956141370555426250987807179627 1:0.101225 2:0.060741499 3:0.057807699 4:0.042932302 5:0.140275 6:0.079760499 7:0.141342 8:0.180005 9:0.12391 10:0.118922 11:0.093003199 12:0.058460198 13:0.063461304 14:0.15996701 15:0.139873 16:0.112148 17:0.105934 18:0.116888 19:0.101842 20:0.039902899 21:0.0221279 22:0.0020840201 23:0.0736733 24:0.179699 25:0.49772999 26:0.49772999 27:0.19774 28:0.10344 29:0.091420598 30:0.034147501 31:0.00553696 32:0.12928601 33:0.128107 34:0.283795 35:0.19884799 36:0.105235 37:0.0248487 38:0.0146158 39:0.040360302 40:0.071612298 41:0.125292 42:0.191935 43:0.178992 44:0.061068099 45:0.046210501 46:0.20094401 47:0.059643898 48:0.105699 49:0.138915 50:0.118861 51:0.244205 52:0.36449099 53:0.36449099 54:0.30482301 55:0.019862 56:0.0143134 57:0.0139933 58:0.0132955 59:0.055527199 60:0.117815 61:0.15155999 62:0.076193601 63:0.031899299 64:0.062091101 65:0.0071972399 66:0.0188115 67:0.033557702 68:0.037797399 69:0.171215 70:0.36449099 71:0.36449099 72:0.20486601 73:0.062124401 74:0.0073670298 75:0.0099685397 76:0.0336321 77:0.067076698 78:0.132953 79:0.30888 80:0.30888 81:0.096105203 82:0.055568699 83:0.0122868 84:0.0109148 85:0.0098548597 86:0.0367718 87:0.0473844 88:0.26462901 89:0.26653299 90:0.091812097 91:0.20314801 92:0.045533799 93:0.034401499 94:0.078308597 95:0.090698197 96:0.126205 97:0.30888 98:0.30888 99:0.225288 100:0.18805 101:0.0397746 102:0.0208406 103:0.0406297 104:0.0315472 105:0.046596501 106:0.27131301 107:0.30888 108:0.29223201 109:0.14652 110:0.027397599 111:0.043715801 112:0.0229712 113:0.047451999 114:0.061438002 115:0.075502701 116:0.137484 117:0.169983 118:0.16931701 119:0.032037102 120:0.053720001 121:0.0379625 122:0.037282899 123:0.0752161 124:0.350651 125:0.25865999 126:0.301516 127:0.350651 128:0.052311599 129:0.078528598 130:0.037474301 131:0.0238593 132:0.021861 133:0.092303999 134:0.178598 135:0.350651 136:0.350651 137:0.061557099 138:0.0725438 139:0.033044498 140:0.040348999 141:0.054893401 142:0.072058797 143:0.16400699 144:0.350651 #
-0.27956141370555426250987807179627 1:0.142492 2:0.100704 3:0.167614 4:0.062911198 5:0.095881298 6:0.049093701 7:0.072623797 8:0.066535801 9:0.160044 10:0.202112 11:0.113892 12:0.169383 13:0.097999103 14:0.18063 15:0.089437596 16:0.1293 17:0.136654 18:0.191448 19:0.264505 20:0.14977799 21:0.175486 22:0.071650803 23:0.095101103 24:0.158324 25:0.123635 26:0.137339 27:0.222014 28:0.41920501 29:0.24537399 30:0.20648099 31:0.15953 32:0.120746 33:0.123656 34:0.15549199 35:0.055750001 36:0.26769301 37:0.15582199 38:0.079863697 39:0.122754 40:0.101858 41:0.246214 42:0.101004 43:0.127233 44:0.16240899 45:0.125098 46:0.113802 47:0.097925797 48:0.153659 49:0.121034 50:0.34079799 51:0.18831199 52:0.16734999 53:0.119955 54:0.149398 55:0.244527 56:0.186709 57:0.153899 58:0.189217 59:0.20394599 60:0.093904898 61:0.091405399 62:0.061937001 63:0.157883 64:0.192044 65:0.151397 66:0.131359 67:0.11864 68:0.31094199 69:0.16734201 70:0.18677799 71:0.109721 72:0.16182201 73:0.202059 74:0.148698 75:0.0964339 76:0.042029198 77:0.127544 78:0.21957199 79:0.122438 80:0.108123 81:0.168612 82:0.381533 83:0.260571 84:0.093894698 85:0.098189898 86:0.132443 87:0.142327 88:0.133386 89:0.050172601 90:0.20701601 91:0.14836501 92:0.12705 93:0.093532898 94:0.068301201 95:0.181887 96:0.125744 97:0.128315 98:0.169779 99:0.18523701 100:0.212061 101:0.146697 102:0.084437303 103:0.0863446 104:0.26326299 105:0.19055501 106:0.15461899 107:0.15906601 108:0.22470701 109:0.23091 110:0.162403 111:0.088864997 112:0.17015401 113:0.166793 114:0.090513997 115:0.0852056 116:0.040502898 117:0.11996 118:0.18069901 119:0.15737499 120:0.124633 121:0.174127 122:0.25106901 123:0.182776 124:0.106431 125:0.119319 126:0.144078 127:0.174463 128:0.133549 129:0.12341 130:0.150618 131:0.249834 132:0.11029 133:0.123242 134:0.088092797 135:0.16056401 136:0.15732799 137:0.187773 138:0.211432 139:0.189004 140:0.26303101 141:0.225438 142:0.159995 143:0.22021399 144:0.16524699 #
0.27956141370555426250987807179627 1:0.28859401 2:0.28859401 3:0.133132 4:0.044794399 5:0.0295728 6:0.016439799 7:0.022127301 8:0.095114402 9:0.079333097 10:0.28359601 11:0.28859401 12:0.270237 13:0.078236803 14:0.052116498 15:0.0131277 16:0.0137381 17:0.12508801 18:0.114679 19:0.27560201 20:0.28859401 21:0.114826 22:0.084303401 23:0.034320898 24:0.084724002 25:0.100413 26:0.158747 27:0.118427 28:0.245287 29:0.25080401 30:0.20422 31:0.165512 32:0.067185096 33:0.053704001 34:0.075121 35:0.207919 36:0.18292101 37:0.21714599 38:0.28639099 39:0.26367801 40:0.26848099 41:0.15178099 42:0.057698101 43:0.0119977 44:0.053263102 45:0.104194 46:0.050955299 47:0.047442 48:0.115433 49:0.28639099 50:0.270464 51:0.098367304 52:0.024000499 53:0.028451201 54:0.0506039 55:0.138753 56:0.154667 57:0.22799601 58:0.28639099 59:0.24246 60:0.077219002 61:0.0470974 62:0.113756 63:0.133261 64:0.050562501 65:0.051830899 66:0.140168 67:0.28639099 68:0.28639099 69:0.167916 70:0.048604801 71:0.033239 72:0.061264001 73:0.155875 74:0.13706701 75:0.073649503 76:0.064897701 77:0.044092499 78:0.22098 79:0.26806301 80:0.13959999 81:0.125338 82:0.17741901 83:0.14627101 84:0.095349103 85:0.118864 86:0.041448802 87:0.162716 88:0.26806301 89:0.25708801 90:0.163977 91:0.26806301 92:0.046615299 93:0.020609699 94:0.0104709 95:0.0249083 96:0.121642 97:0.22043701 98:0.089117497 99:0.26806301 100:0.26806301 101:0.104966 102:0.053777501 103:0.0351745 104:0.029184099 105:0.111561 106:0.26806301 107:0.23504999 108:0.26806301 109:0.145584 110:0.078132004 111:0.107602 112:0.25681701 113:0.26069 114:0.128877 115:0.127662 116:0.16362201 117:0.139571 118:0.077453397 119:0.043267898 120:0.16461501 121:0.26624 122:0.26624 123:0.17106301 124:0.073694304 125:0.051595699 126:0.095612198 127:0.252639 128:0.117064 129:0.118269 130:0.140872 131:0.171183 132:0.144453 133:0.141831 134:0.172775 135:0.14498401 136:0.157594 137:0.111269 138:0.25152501 139:0.220624 140:0.26383701 141:0.165858 142:0.104497 143:0.11065 144:0.14211001 #
0.27956141370555426250987807179627 1:0.088367298 2:0.118383 3:0.130638 4:0.084014498 5:0.0319001 6:0.016811101 7:0.0922888 8:0.24761701 9:0.16839001 10:0.057126999 11:0.022290099 12:0.024253201 13:0.00296344 14:0.036652301 15:0.0132449 16:0.13045 17:0.35359201 18:0.26845801 19:0.106756 20:0.102998 21:0.25062901 22:0.25589201 23:0.214636 24:0.032733001 25:0.057362299 26:0.22236 27:0.263419 28:0.118407 29:0.053720601 30:0.0351847 31:0.024904 32:0.016829399 33:0.0029440401 34:0.205832 35:0.35359201 36:0.35359201 37:0.051978901 38:0.0164528 39:0.044877201 40:0.00408326 41:0.051076099 42:0.0035556401 43:0.067097798 44:0.277863 45:0.198983 46:0.095120497 47:0.0524287 48:0.056748498 49:0.023293 50:0.085961103 51:0 52:0.029128101 53:0.120105 54:0.130503 55:0.0898178 56:0.035561599 57:0.0061629899 58:0.020963401 59:0.024956601 60:0.0045086001 61:0.22382 62:0.38979301 63:0.38979301 64:0.38979301 65:0.168256 66:0.0093034003 67:0.022712899 68:0.043529298 69:0.0068459199 70:0.079586998 71:0.38979301 72:0.32624099 73:0.144568 74:0.088330403 75:0.076309599 76:0.17092299 77:0.33807999 78:0.064974703 79:0.034220599 80:0.050861001 81:0.136023 82:0.292772 83:0.26067799 84:0.0281145 85:0.028911101 86:0.031218801 87:0.0055930298 88:0.108618 89:0.25299901 90:0.220387 91:0.33983099 92:0.152896 93:0.0139769 94:0.084113501 95:0.183523 96:0.0570223 97:0.078052796 98:0.116765 99:0.243194 100:0.33983099 101:0.33983099 102:0.031190399 103:0.0091208797 104:0.023266699 105:0.00372857 106:0.0199937 107:0.026882 108:0.125577 109:0.24490599 110:0.24766 111:0.0096642403 112:0.037297599 113:0.0260239 114:0.0073077301 115:0.116747 116:0.307641 117:0.18588801 118:0.307641 119:0.180825 120:0.0089583397 121:0.025033901 122:0.032863501 123:0.019442201 124:0.082010403 125:0.307641 126:0.224636 127:0.307641 128:0.307641 129:0.028136101 130:0.0169535 131:0.037884202 132:0.0045274799 133:0.033169899 134:0.072756797 135:0.109327 136:0.22004101 137:0.114593 138:0.0097557399 139:0.0123253 140:0.083487198 141:0.060984999 142:0.152954 143:0.307641 144:0.22032499 #
